{"biases": [[[0.030244713856015615], [-0.9332253116385417], [1.6947995912453477], [1.1670291376056463], [0.9291273213128737], [0.840638747323331], [0.848201283430456], [1.9478418398142205], [-0.3116551676976507], [-0.7469676819280253], [-0.07243523535717765], [-0.4343342210563503], [0.742189632919303], [-1.0043413845572045], [0.7285849599999618], [-0.04810819148843444], [-0.06248348720334855], [-0.1908902262626064], [-1.2506185616957493], [-1.1743944030380977], [-1.6654893882749735], [0.16582582371397517], [-0.92133419451952], [1.4346159317613638], [-0.10917455199415443], [0.9241011244592822], [-0.4984853210619635], [-0.04739274466620473], [-1.4566603695324072], [-0.6727011282133537]], [[-3.0096704786480255], [-1.8157124089927295], [-2.0938091299889856], [-1.8293887089517125], [-1.3078919261104323], [-1.5372558013268536], [-2.592020198987902], [-1.589112278936149], [-0.8987379522037351], [-2.504417713281434]]], "weights": [[[0.00010335117662060175, 3.354472160681037e-05, 8.275158521448924e-06, 0.00013715447277054288, 9.606888067717791e-05, 1.2023008653678228e-05, 9.248239057019932e-05, 1.238753902597296e-05, 2.232567537806907e-05, 9.049294825351443e-05, 2.7885199114702958e-05, 2.9895817344979585e-06, -8.179487430677388e-06, 7.178853779095874e-05, -1.3595569337020426e-05, 4.2863632894590874e-05, -9.161675493477328e-05, 6.392978094574811e-05, -7.928012660483999e-05, 0.0001435759494884964, 1.8510635560242734e-05, 7.990202352161905e-06, -6.865164419468084e-05, 2.4612325869115997e-05, 1.8586444935110634e-05, 6.436540590845397e-05, 1.532244894001904e-05, 2.946147167731668e-05, 7.613305832365504e-05, 9.302697430990445e-06, 4.301783589172926e-05, -3.198905192674321e-05, -2.8542393509927482e-05, 3.4558997962436976e-05, 3.740834803470618e-05, -4.6877526546896405e-06, 6.566419395938536e-05, 9.233796425381423e-05, 0.0010423337934507531, 0.006693224855760377, 1.775887372160594e-05, 0.003434583913955007, 0.01434332623939112, 0.017464141969982035, 0.009243377234835448, 0.006706911079754435, 0.0029297572653058713, 5.5680837256201485e-05, -0.00012884010492998307, 3.265246114262037e-05, 3.320013727534877e-05, 2.0076253283473587e-05, 1.3755728758601436e-05, -3.555607041494318e-05, 1.0957142269331261e-05, -5.611221601100739e-07, 8.482101211162405e-05, 1.4508722326396337e-05, 4.795963791796839e-05, -5.3555983970713216e-05, 9.932621451340059e-05, -1.9563251769661643e-05, -2.0789212196547538e-05, 7.997762909787463e-06, 5.618810592769912e-05, 3.024065775575441e-06, 0.010867190605270947, 0.022809122496330964, -0.02313552978036786, -0.013977553901496385, 0.034136228175800774, 0.02641498237020834, 0.04598328558225959, 0.06304810350712169, 0.04634684322029974, 0.032535496568549926, 0.009129292715281977, 0.010301851233843962, 0.005144228418941551, 0.0003572216468688552, 5.593615946067944e-05, -8.712644660194158e-05, 1.7777132799727415e-05, 5.1366116006460374e-05, 1.5477407948930697e-05, 3.9134513544210386e-05, 1.8759102334283596e-05, 5.625934224557439e-09, -5.4413114137676106e-05, -1.927853031339807e-05, -0.0009118619026674984, 0.00240784740798649, -0.018557460602770234, -0.025999699164124136, 0.007386997665968756, -0.0032714900933537754, -0.009786667561517295, -0.009749990566385917, -0.00952963630518383, 0.03971472032287547, 0.08467868998779936, 0.08608848752373693, 0.0716096627072348, 0.058990599412504445, 0.010303458366064925, -0.0026363439977094127, 0.007843208629010036, 0.00027312380395017163, 1.8864392500202286e-05, 3.4351457731564556e-05, -9.326831081980421e-05, 4.711824265161935e-06, 2.1633223326828077e-05, -2.375862702425946e-05, 3.4305663698364745e-05, -2.106737238794965e-05, -0.001066278381942028, -0.01419684376448474, -0.014147048363909702, 0.0013713440720378126, -0.02839466554348214, -0.024520129032773327, 0.03720800288857631, 0.014356517253888618, 0.004510445638986872, -0.03180213103656865, -0.010992493507860607, 0.06068398491899602, 0.11115723135879158, 0.09381076234247959, 0.07463580626671015, 0.08972563926516809, 0.06033875365281214, 0.020901747266860792, 0.020869307940081766, 0.009416868262283022, 0.002165233389609927, -2.4670971850596305e-05, 8.53709312595898e-05, 8.334276695074871e-05, -4.085338116524665e-05, 3.516426370233833e-05, -7.226322927412396e-05, 0.00015884127490880463, -0.024743982738409612, -0.06377399246670189, -0.0486076899248726, -0.036761334215343076, -0.06749238378445654, -0.04654555379429285, -0.0692892183748851, -0.08661877408538157, -0.012797473843867431, 0.05385409579420465, 0.05120493529952198, 0.09439943173882386, -0.0020635651339927386, 0.048628473350368816, 0.11668585869883114, 0.10803982091316904, 0.06380351046930625, 0.04737866906442539, 0.035775369578669905, 0.04420716401791732, 0.004956083447501314, -5.821964106937785e-05, 0.0033123409701966916, -7.12200442710396e-06, -4.717136245250571e-05, 2.0841892217481943e-05, 3.763841590094799e-05, -0.0007631552146234518, -0.03696078092856074, -0.056485950854439984, -0.02929174261396641, -0.08347032341969814, -0.06846848570215842, -0.011075848860024702, -0.011665581746423927, -0.011139289194969551, 0.0006662025239677601, 0.03719063969804272, 0.0024956586712727206, -0.022814036982415593, -0.04424028639938127, 0.013692881486317187, 0.05971229244874274, 0.1041468858650656, 0.06998244548419633, 0.06030192421996592, 0.017438369057186244, 0.03966049536992745, 0.02986633343173295, 0.005192202388081, 0.009280198969302347, 0.010062263735587, -4.528018511507236e-06, -3.9209106636437055e-06, -0.00021278924304956383, -0.009550867148717173, -0.027006358433007416, -0.03982730490553917, -0.05438902996082116, -0.08432649514992402, -0.021901600016584005, 0.06426817956901681, 0.047383086802621426, -0.038461738221158934, -0.10633118105285519, -0.1656671749439962, -0.16183581080424345, -0.09513161060236804, -0.09870594693097902, -0.07353969985594781, -0.020253483260231107, 0.0006807079961040536, 0.011465665232284364, 0.008599985842101442, -0.013050684182095172, 0.06557510915305949, 0.043498944375459384, 0.030560623351980166, 0.01907253252430617, 0.00520114729781909, -5.029450070908473e-05, -0.0001467148022082425, -0.0001292410786035628, -0.005728554970067748, -0.01341659605124536, -0.0547923280411909, -0.05563015173980121, -0.12915750130469988, -0.03856672069337566, -0.03018373681634355, -0.044283711612983646, -0.1070888558136046, -0.18352574040723124, -0.0778756327590519, -0.027706003932442793, -0.09125351979369781, -0.05550067867909193, -0.09395028799999888, -0.07356263625954217, -0.07441740811649511, -0.08140333181906866, -0.03595457860221005, 0.05096608846321538, 0.09280650161013065, 0.09099289403018097, 0.046849167984425136, 0.005854715435576962, -4.668772758286634e-05, -2.6742128658120256e-05, -0.004254436972959241, -0.001402658190121545, 0.0011658180823169411, 0.003573606069875815, -0.005659681545762963, -0.0482199316253019, -0.04907738910834375, -0.023671195679588017, -0.022522130758854193, -0.0820817427016266, -0.05386395583050013, -0.07335612190174774, 0.043163865584609946, 0.07625942160858135, 0.0009852153797289568, 0.012944086602791963, -0.107617941780267, -0.08119543082676156, -0.06557114353779464, -0.0850011836047227, -0.06567008660833215, 0.10087445090649232, 0.11955387902510561, 0.09868924183318567, 0.025920664682762027, 0.0014293581660547768, -5.791408339641615e-05, 6.262111543278526e-05, -0.000464074523060068, -0.009696018201348532, -0.006812127952006651, 3.3267547648338806e-05, 0.010162375014819834, -0.028939286079291318, -0.008394078258967548, 0.04899489942911077, 0.06994655925416184, 0.03652689971812355, 0.0047636678107696815, 0.10538960882751434, 0.19851289053613214, 0.2127186880586647, 0.05101338581783999, -0.04677942958611058, -0.19080628094937524, -0.1541046258154528, -0.14015747992350364, -0.16928488404041436, -0.08884723616652457, 0.04512087747984024, 0.05148645301277047, 0.04624236093641013, 0.00842902647626304, 6.968649304833032e-05, 1.6362582416692694e-05, 4.5928541404463794e-05, -2.3479566043808996e-05, -0.007563813959723691, -0.017844596759234423, -0.008809509752949926, 0.021269324485970992, 0.006628069588806473, 0.04477399391611123, 0.0781821830172607, 0.07849278221617936, 0.13243258231329033, 0.16389980788234018, 0.2230112264405066, 0.23943108954191078, 0.18244891448825676, -0.034817369470710034, -0.14468335856574585, -0.19994888685800488, -0.08321943260550536, -0.1350681104964788, -0.21275871414707498, -0.0833655509467902, 0.056795617762271544, 0.04038206878509634, 0.04240702862286361, 0.0015343978897448816, 0.0032297222265487385, -3.920664449289966e-05, 3.091659171186689e-05, -4.025005518594866e-05, -0.0018542644976786288, -0.01135774622190063, -0.00929351981888815, 0.029895489275116024, 0.052889897800710156, 0.09589789733258614, 0.0674392020846056, 0.10834186851275109, 0.13192584225505358, 0.14150447604832742, 0.20773708313396594, 0.2711939212479137, 0.13256034383287943, -0.0038083417951413926, -0.07902762471296602, -0.14275965345432384, -0.05432852970648749, -0.10374604874492865, -0.09384120500471603, 0.011109457273134504, 0.09642901166447514, 0.07569399297610284, 0.06127455353745388, 0.010160828588210737, 0.002545535571383089, 3.44930057826833e-05, 1.3968244617363157e-05, 7.895031769057286e-05, 0.0016186821203916695, -0.003143186341758096, -0.02723216656355899, 0.02008749099951184, 0.09775261462823795, 0.08139025561871999, 0.04484624888397999, 0.10373662499771102, 0.08143617322091977, 0.10081283975729116, 0.18217483649011706, 0.23364092336481104, 0.09732935721154601, 0.0007124985360407988, -0.0646491155710438, -0.12072158679080218, -0.07677952920220567, -0.03229676260745252, 0.006209218129884405, 0.06622052488504009, 0.12017787556883228, 0.1017263466223077, 0.06094288857386855, 0.01794284835442826, 0.0003140291301017924, -2.7242366478539225e-06, 2.0778256272734462e-05, 5.7756543359180804e-05, 2.617143627809991e-05, -0.0026361553184976625, -0.029289093870527028, 0.03557023973665654, 0.09129284845453856, 0.03820094384028402, -0.056163752564214416, 0.027612715959613492, 0.08132072268814994, 0.02073329044734943, 0.05650227117448333, 0.037306829190186686, 0.09284056230767447, 0.04897269982100343, -0.1224826427744426, -0.11854250973548672, -0.0607199793306223, 0.004259039311088308, 0.0768455904977421, 0.16359828352224312, 0.15786542405124995, 0.1382031837623691, 0.06052297677886277, 0.0064696294640039466, -0.0023627931242759755, -2.9293706761058436e-05, -0.0001200628326538035, 2.896256565913594e-05, -6.95680088805911e-06, 0.0010656742976774315, -0.02033308397890755, 0.019705781289168344, 0.024741389676486824, -0.024397492999489075, -0.060031908795290426, 0.044061628115076405, -0.007142506667480857, -0.09719999613714715, -0.049075251339616585, 0.004508532546317829, 0.10157372186248502, -0.04522570111829571, -0.20389681877363428, -0.15707177833567781, -0.08839111405455964, -6.159283324545534e-05, 0.08338162179810489, 0.13943391325913806, 0.104961681224182, 0.07988624645684496, 0.05473236587350182, -0.039451184928822845, -0.040867290823810076, 1.550536764164617e-05, 3.6042986895448465e-05, 1.7822954414951486e-05, -0.00040999769444589293, -0.0006217596690855542, -0.025041236166703847, -0.024233511853007896, -0.04028005090481817, -0.03080455743723891, -0.0226156425554064, 0.0019335353113603398, -0.06701417111951914, -0.0570417521296123, -0.07125440890365291, -0.002037543087370548, 0.02141952010153747, -0.15909558277730584, -0.2128433663018837, -0.1621691108448609, -0.11384487616907805, -0.028725759085533938, 0.05975119840191331, 0.0640785691343073, 0.014766980161640672, 0.008630701041484265, -0.0007310853299886988, -0.04692102396501124, -0.01978991550352491, -3.733689904868472e-05, -1.8309993625426638e-05, 5.036435365184999e-05, -0.0006604233789521358, -0.012042844634319002, -0.0340151715037902, -0.052778044339298, -0.05128630278178057, 0.010095153801422115, 0.030064374568531026, -0.021009307825940265, 0.0818593394153272, 0.06607273806898245, -0.025702708017138795, -0.07533969512969999, -0.08529441418048121, -0.19206011067860082, -0.10146466022215705, -0.05306863663275713, -0.007559116489737613, 0.01404414672796183, 0.07827843327662767, 0.0103264910365416, -0.027034848128139784, -0.040136097145879485, -0.018372840376410023, -0.027373861500560166, -3.611725574179946e-05, 3.181170457347233e-05, 3.831839573136134e-06, 4.026062596107817e-05, -0.003975063088482628, -0.021764005387416616, -0.0524286280124768, -0.03744059011604971, -0.0726838553962783, 0.029150706451923258, 0.08348088421975297, 0.05788621522226652, 0.16313660326743987, 0.10836502869463756, -0.13152850201499064, -0.08402850313410715, -0.046212261974720795, -0.071496507359533, 0.006288369272127519, 0.01901310878794982, 0.12983098405223018, 0.038642177076464584, 0.009372120183932882, -0.05697646499656729, -0.06439879517727809, -0.05004436345870478, -0.05770207036783765, -0.012938309052511816, 3.0151594911218232e-05, 1.5863972890353315e-05, 0.00011889521760152314, -2.7573809110206608e-05, -0.004899959357945217, -0.02747708235928717, -0.0759174684997354, -0.09291475252578232, -0.1118982152235561, -0.03422101226772773, 0.06916427805156874, 0.14036006422568764, 0.20604518356121324, 0.11612838322837166, 0.03095366809281421, -0.007502001280920964, -0.024406721792587793, -0.03135980892904592, -0.04428555339974081, -0.02084927210074744, 0.02544268930889631, -0.07383561904553503, -0.07941654096271691, -0.07898015710775186, -0.04589535614342287, -0.004097356317554312, -0.00758776220807232, -0.002054492533430509, 2.9882440891347503e-07, -6.181704894737359e-05, -3.4655375920010337e-05, -6.863551148117627e-05, -0.0024780588419193524, -0.025544194084775797, -0.05956618932999062, -0.06557571445831549, -0.07185268142206011, -0.026698158292477722, 0.1158964524761617, 0.16777313118016993, 0.20868765310226225, 0.1186504967812329, 0.112950433170962, 0.022622641685731377, -0.03870366431982389, -0.04969380230945729, -0.02271098682864868, 0.043795872800958126, 0.008893108370516286, -0.12085812757512557, -0.09830256432967005, 0.0015896580219165056, -0.010322023437376178, -0.025564326988124497, -0.03531553248324965, -0.009338893749540124, 0.0021353724931646428, -8.060570202944508e-06, 4.4158528934486244e-05, -6.331033652993042e-05, 0.0006703812154777804, -0.009109111091417757, -0.029075796115069417, -0.056392280836249684, 0.00784197388507358, -0.023006930043873157, 0.08661160926811738, 0.11565328211408629, 0.12689170582291842, 0.035214402723186745, 0.020491745245859887, 0.034671668424725466, 0.03985678450532354, 0.09300764438274382, 0.06783512624994623, -0.015020469300160839, 0.026311710221136233, 0.0008824407564275216, -0.03629327650392363, 0.0005041463829455175, -0.004564140085013128, -0.034772276186409184, -0.0445021926652613, -0.004813397661068476, 0.007137429261471045, 1.4335987851612305e-05, 0.00011068611727717116, 6.36493214037751e-05, 0.0011041137775659095, 8.099687359496223e-05, 0.003567609145483632, -0.004973509908130948, 0.06047842409118745, 0.00648720617523071, -0.019023597698961083, 0.05532953334917135, 0.12617516848305588, 0.06347056588920583, 0.044336984788308956, 0.15518493882483209, 0.18748880394312062, 0.14994700421124235, 0.00046268639786463677, -0.015767756784849696, 0.05342533781092305, 0.020428468547328934, -0.025656588899729684, -0.014584466845557649, -0.01586375357754609, -0.026612602972694393, -0.007287088961945262, 0.0010107622329027176, 0.0022120943921712954, -3.0064955980311885e-05, 7.110171184352162e-05, -1.5225292629649976e-05, 0.0001134515762010238, -6.472775849380977e-05, 0.006550985535905908, 0.017298107349750635, 0.018706312787503974, -0.021597796334243233, 0.049102029535221775, 0.14537835547974948, 0.16659760214412064, 0.14739313618598543, 0.13947263985588118, 0.13541022772160005, 0.09575361830130638, 0.08154974549919389, 0.034102115993740724, 0.01798026196611225, -0.002691219300209408, -0.07068422136156075, -0.11884727920403258, -0.09808924979355553, -0.032121757006555805, -0.028116871481331282, -0.0019415474988868596, -1.6808211361342977e-05, -6.749553647756966e-05, 4.970250326648239e-06, -4.3570898375762275e-05, 1.3506592984330832e-05, 0.00012953004058606016, 0.0020901073345508474, 0.007245034077795398, 0.006289436695042385, -0.041086570456450026, -0.06620794568299054, -0.03012258415783005, 0.024915433356595476, -0.016224832540157854, -0.019861578363907756, 0.0032474902037642967, 0.019314477993066813, -0.001262139967223237, -0.005292684260816462, -0.039342532425720916, -0.009371587042353934, -0.045959356340102946, -0.12079853596256186, -0.11633311406297196, -0.07077482057197333, -0.010037958101529687, -0.001669382564006333, -0.0006322397447326085, 5.205944330262601e-05, -5.2538340576158486e-05, -4.228512712735081e-05, -6.943839638123924e-05, -5.81012774748579e-05, -1.4148446346662507e-05, 0.000443058017824889, -0.0037148342867888047, -0.038683392156946696, -0.06457610370304191, -0.0698485641606185, -0.04928069013140404, -0.04500836979896889, -0.12255481964733625, -0.11743713782639939, -0.09156232904810876, -0.11875211688483764, -0.10690764686422574, -0.09664335077004194, -0.04675626152533239, 0.0033892119925940187, -0.03423386640231366, -0.02981183645624203, -0.022311147602161865, -0.005822290866457676, -0.003410084399341611, -0.0013018334630132086, -0.0003499351620037951, -2.7887504925825183e-05, -5.077792798390076e-05, -1.2609237381800051e-05, -3.214995459242079e-05, 2.833603578240327e-05, 4.6073907588474526e-05, -0.0030222453591704206, -0.021439216654132412, -0.01953053604485121, -0.014839319216745306, -0.007849845981755076, -0.023043620242471186, -0.014302738766415444, -0.013964384473543503, -0.02814115453840095, -0.01449853688949323, -0.017504442406629527, -0.022427322659575113, -0.02033751001319065, -0.024300861713505588, -0.007558423160253816, -0.03507535954754644, -0.018713386224084215, -0.00015094161973976976, -0.00019216202994024409, 7.981245768786156e-05, -6.376610301074502e-06, -1.978435391320375e-05, -4.3760109997386506e-05, 4.1926340196521044e-05, 1.409539710520802e-05, -4.1459591538194835e-05, 3.3349105447522874e-05, 7.102365475742288e-05, 3.4687777917750495e-05, -4.6459104572137506e-05, 0.0006746473716911235, 0.0015146509425519301, 0.0017850388327190032, 0.0004973518645922734, -0.00048176806899220283, -0.000296724583233688, 0.00011886984279106476, 0.00037261337500777797, 0.0006398499511104719, 0.0024889650121948043, 0.0029555456847019886, 0.0006066596847943326, -0.0027894663055264123, -0.02143420934378016, -0.010236544526366345, -0.00011787610155376589, -5.654799693539808e-05, -2.4653770613937218e-05, -1.0689749839072497e-05, -3.9366448845074195e-05, -3.249973843193885e-05, 1.5125607361931036e-05, 6.66651613604668e-05], [2.5001749266973156e-05, 4.481950111454731e-05, 0.0001113543402912356, -7.07457299827712e-06, 4.578253348466697e-06, 3.090440214838403e-06, -5.605197341405395e-05, 5.844348253328772e-05, 1.1589011125168395e-05, 3.8257597601958184e-05, 3.2705337686787806e-05, -1.1835724370038718e-05, 3.19067404826062e-05, 7.563750198298317e-05, 1.317046048855609e-05, 2.2086652385914013e-05, -1.3569985378630053e-05, -2.207189144773978e-05, -1.4997465706296613e-05, 3.355101256252059e-05, 3.307913940553005e-05, 5.686626472503703e-05, -5.558841988612245e-05, 7.604802782830241e-05, -8.108225595002145e-05, -1.1075192638802042e-05, 1.6884953591950723e-05, 7.4535420737946765e-06, 4.611037955073479e-05, 1.6937042959888143e-05, -6.816738510293184e-05, 1.4677270581905798e-05, -2.7489606913616647e-05, -6.12562068647941e-05, 1.990609149297498e-05, 7.887465563237356e-05, -8.325556616987968e-05, 4.450205531306508e-05, -0.00029838337156204425, -0.0018371289559435916, -3.504145070740521e-05, -0.0007790501718876816, -0.003589754424101062, -0.003921240974196622, -0.0007749157296359877, 0.00010761823692207487, 0.000314931597277215, -2.165799506067893e-05, -1.370157425934948e-05, 5.872015930565111e-05, -4.7911134695874025e-05, -2.595781173978053e-06, 2.953052372842502e-05, 7.389022577905893e-05, 8.452905977563967e-05, -8.731624993681787e-05, 8.109669453374131e-05, -5.88515571064452e-05, -4.922046288736343e-05, -0.00017510751534616345, 1.2099419219129761e-05, -5.140061724015064e-06, -4.280489591320991e-05, 7.943851048120193e-05, -1.6932272544180112e-05, -1.7058399787700295e-05, -0.0026749002724277557, -0.005148397485777822, 0.022931829828090795, 0.021472013938272298, 0.005804389481580291, 0.0006033086752617021, -0.023538572962994976, -0.02454624996235696, -0.01179782382015722, -0.0104579300719077, -0.006365204978796342, -0.01024404681274829, -0.0035297202776328803, -6.984115546401475e-05, 8.594983127638823e-05, -6.086494916808202e-05, 3.7523754610685726e-05, 8.130968427589334e-05, 0.00010461465864932719, -2.4984217808886714e-05, 0.00011170193184509308, -4.572377427536527e-05, 4.4490885290154155e-05, 7.70352483171742e-05, 0.0019904376640917675, 0.0011393435112899888, 0.014779768752480504, 0.021214388369028652, -0.0012582606743075883, 0.011812977774816035, 0.02320973410929399, 0.047029819492411355, 0.026308917611914985, -0.006481652065227054, -0.03944076356570404, -0.030780651015411487, -0.040639020014415016, -0.06660728835072441, -0.03496393359008002, -0.004414886186856318, -0.005711140395720086, -3.84767193922173e-05, 1.7124542834983738e-05, 2.3149543003223264e-07, -4.119266618319393e-05, 9.359744958313168e-06, -0.00012862226045686504, 9.50787944798524e-05, -3.649098775490296e-05, 2.317657992502344e-05, -0.0005550771238613005, 0.0054250009823829225, 0.013967802237647155, 0.014738159353850318, 0.043991449140751676, 0.01855073533796186, -0.01886868025956844, 0.01580733564533127, 0.05241692712270926, 0.0747094492911713, 0.048393314343777895, 0.024466392192514744, 0.03558368807973592, 0.08349079990006424, 0.036957142060721364, -0.03233069184594679, -0.05458400445353374, -0.011218350123102997, -0.012544286982742073, -0.00010729963816353553, 0.004753759645123399, 8.679035191289525e-06, -4.67300516595798e-06, -0.00012810499588208497, -1.6059391478477497e-06, -1.879624900319354e-05, 3.67500180875581e-05, 4.8622994701856076e-05, 0.005894312779253982, 0.03089533362814655, 0.04755484269955477, 0.07829556138436775, 0.08180078199782372, 0.04780075984780641, 0.02724776102287572, 0.02850591942499576, 0.010457272944791833, 0.029597224557663865, 0.03187137478571927, 0.02355364072172513, 0.10644881702284788, 0.06759871496324713, 0.01851542048878193, 0.004538380302990876, 0.05617430639697391, 0.03549977652848686, 0.0010790549897805057, -0.022281518395512182, -0.0070430486794379596, -0.0020744495613839228, 0.0016764670244575268, -0.00010526265346842345, 0.00011907033977208367, 1.2339563999995394e-06, 5.2879872873513906e-05, 0.003499331289496728, 0.029922498947387553, 0.05857363656189556, 0.0948992024532262, 0.12332401293632865, 0.1048259076409615, 0.044006251011833836, 0.019201953493641857, 0.03936219440713436, 0.04967339770277837, 0.06640191179380275, 0.009789765372531067, -0.007679008206359983, 0.018678723227839866, -0.06517353454230808, -0.03564336649480242, 0.0017130942943967488, 0.07933512032213536, 0.07272191865573802, 0.03875149446856017, -0.0022809067170549576, -0.007170405986779018, 0.00550054893065493, 0.007223058433982297, 0.007285340101891441, -0.0001617570260418251, -2.2967029539491417e-05, 0.0008985917177211087, 0.04390461258053595, 0.054385029731694116, 0.051497294230172005, 0.07710831745627762, 0.1054635889112306, 0.07410136434710868, 0.025322899560065847, 0.04609269442694129, 0.07741988582322273, 0.08856329452798906, 0.04803980437484344, -0.01882877200358572, -0.05108133626501649, -0.05265505085127798, -0.10411048956970258, 0.010136382099162077, 0.033807999337281985, 0.07635016980571124, 0.08468059945936551, 0.07227707194118897, 0.027124278763325228, -0.0045101202930033935, 0.015341537260477222, 0.0150544457584567, 0.004383881055795321, 2.235611445860723e-05, -6.693007994283046e-05, 0.0007996630179124476, 0.037692658788080875, 0.03285756873957829, 0.04826103712073355, 0.05587015861994705, 0.10069080628603554, 0.048786211161468834, 0.031432041672679156, 0.011868864405815395, 0.050856282067598194, 0.11065599763300102, 0.05071900384962083, -0.007235724162089943, 0.048818785683677965, 0.02890237760604246, 0.037988893912698135, 0.11209114028989257, 0.05245016509081269, 0.08815973773485915, 0.1001610878952472, 0.05201046786789879, 0.016676021915847574, 0.016841035619271024, 0.013461378487524309, 0.006616041653175122, -4.339980340791699e-05, -0.00012768466934853534, 0.004064062128921528, 0.0049501788195223705, 0.025281309214949595, 0.04006712807423078, 0.05925752230570139, 0.06716191201302363, 0.050204514787124774, 0.027390608969512974, 0.030814680650987348, 0.01844829417768924, 5.8340221004826026e-05, 0.02049099037952384, -0.01187624747710591, -0.003173850864199237, 0.09748978082676683, 0.1398470209984575, 0.18087203501935498, 0.10326113096900814, 0.06850550509326292, 0.06366474142365826, 0.09435653967454578, 0.045274892256012625, -0.00016179233741182115, -0.009289825839538489, 0.006180661630683813, 0.001470331632052474, 8.801590838105316e-05, -0.00016405989018897286, 0.0004952924178287435, 0.026402415737186623, 0.05346477185950811, 0.07013218741172703, 0.06211637227249898, 0.03744238883675646, -0.019534950511264755, -0.016723040825899895, -0.033837895849093594, -0.09589669011450536, -0.16217029808007502, -0.08749877757665606, -0.007390869517338972, 0.07336532951060522, 0.22785757190926534, 0.2100781491771447, 0.1538396248133502, 0.11804644175599463, 0.04547582408442159, 0.05031844276248085, 0.06057171799483752, -0.0037839744005309255, -0.03634464173138035, -0.02928494663307974, -0.00018208833491839945, 0.0005184316060364328, -5.103477883004766e-05, -1.7686116379586235e-05, -1.3965396827636536e-05, 0.020520605647950642, 0.05192619302287975, 0.07329805777096042, -0.009081733463921023, -0.07747610791024998, -0.08383628517251354, -0.07964960336518632, -0.15144895716545442, -0.1484578873777195, -0.2255964895125428, -0.12343160372722295, -0.005040061513796271, 0.10807085016231177, 0.17548287912434782, 0.10159640696308592, 0.10793333720415935, 0.10873121606212185, 0.025448017865499252, 0.024206954316963857, -0.019371941679333975, -0.06736084341944198, -0.06437533847204643, -0.039428139940779275, -0.0011145659651870792, -0.003002803882097081, -2.3027877248948727e-06, -2.6066031323571164e-06, -8.369563434920392e-05, 0.004992203311269061, 0.026771081282842207, 0.03867600426852813, -0.05375789542720599, -0.15542651027658405, -0.1493229543968384, -0.12953340364079324, -0.14115771969744015, -0.21743754282769714, -0.21084910807494028, -0.10118421032373848, 0.04614593918189348, 0.158022051023207, 0.12331651316660919, -0.017935291758455752, 0.037810851721347516, 0.032545998889061845, 0.023238288461647393, 0.015867447397673318, -0.048804176945493556, -0.09657372838573465, -0.0865434952591266, -0.04930549976819052, -0.003505204438313816, -0.0023069481391343, 7.340516795155866e-05, -2.8896094390205507e-05, -4.284447483542727e-05, -0.0007764085173344452, -0.001457596349733693, -0.0005281741570534628, -0.10304379228601787, -0.15870165726478025, -0.16864272043972983, -0.19335438518369472, -0.3166876452378469, -0.3642988946633774, -0.2494552378011933, -0.10576517525677878, 0.05343682497572393, 0.1345689596987908, 0.03656900180737141, -0.04976578829668442, -0.017161081322025998, -0.015827527797398266, 0.03055810699897044, -0.006824755302019253, -0.12072023583537113, -0.10788312252883868, -0.0917585498086185, -0.0453204279597851, -0.002840110823662867, -0.00024265394352328043, 4.2221014946295457e-07, -7.868553284975869e-06, -1.8416756758944742e-05, 2.274030720112216e-05, -0.0005679648534142203, -0.02333848670075415, -0.1638570185025728, -0.1874959811995062, -0.16167897070154524, -0.09893623788163577, -0.19420461990691484, -0.3013010963951503, -0.24769550831606363, -0.06518076640821616, 0.038428477285161196, 0.0798876623418228, 0.021457129131374347, -0.050222187343022945, -0.04126050544069351, 0.032461866494345556, 0.010662098305080017, -0.06593355657482612, -0.1290051603066265, -0.13105071082804315, -0.10278978297127232, -0.03931947675766612, 0.002453160091673778, 0.0017289450422939819, -5.691280947873606e-05, -2.7595099213013665e-05, -3.423485526538803e-05, 3.6398437672259606e-05, -0.00530705105930347, -0.030543217476968976, -0.15224051644763376, -0.1699835118014268, -0.07987989691694454, -0.08540604115082569, -0.16891824134817696, -0.19785658466485362, -0.05595697738508774, 0.04573002036784893, 0.09977193837998213, 0.1109304543781569, 0.003913256514557725, -0.10666250819417461, -0.046112887279852924, 0.0468417114293753, -0.0006335332395356434, -0.055807240676453, -0.05977696973651849, -0.0656758119708859, -0.042297495103284885, -0.011670805805721399, 0.03439623995384964, 0.027786977242864264, -2.417355920247601e-05, 0.00012597687681515594, 6.45432734834652e-05, 0.001120608306273632, 8.462216135075672e-06, -0.015325921778818766, -0.0448444150734183, -0.07788076358247033, -0.08627916637448398, -0.14853907988507054, -0.19325575960798935, -0.139471434823535, -0.02446116345497874, 0.0727341459492078, 0.07386055859009617, 0.10103710952315761, 0.056707554607785905, 0.02066086639049039, 0.04282113982635921, 0.04470356328776509, 0.04272870612947227, 0.01359496995607271, 0.01596376068786559, 0.006949538769547713, -0.001553974595682882, 0.02321274071742255, 0.02761993052132475, 0.014966244894108771, -3.16595637120848e-05, 2.6076107331440555e-05, -6.678308657832865e-05, -0.00014856328765352767, -0.0009477664197695022, 0.0311554896820209, 0.044929998038923946, 0.017947721477181634, -0.052518631517730965, -0.09320289965761987, -0.12260124148851166, -0.09744606266870887, -0.06249581916981653, -0.04214059859309581, 0.05095286546276394, 0.05161928806673366, 0.09130121500908958, 0.02413541893873191, 0.01552670262541029, 0.06129029554382229, 0.0326716759329199, 0.007368929091193095, 0.07952596557615516, 0.07357265434468377, 0.04811495984410873, 0.04986387860886562, 0.023039807472358585, 5.23902801863835e-05, 5.7084189941991505e-06, 2.45579896084442e-05, -5.228103860095748e-06, 0.005991896117736895, -0.001851294603487382, 0.06104680786148614, 0.08811104288297353, 0.05369914869655493, -0.006105317598584965, -0.07147544102455597, -0.08039379048039683, -0.0680069339546251, -0.034519498919578305, 0.07117665383981121, 0.09515648768557844, 0.06663101704397789, 0.02818518233963138, 0.029725582337952486, 0.00013491306656157305, 0.017991765724204047, -0.0528432699145552, 0.0178765391146225, 0.08461982677491502, 0.09136058929538123, 0.061219715258593134, 0.06692931599079302, 0.00820566780930437, 5.8744264384975696e-05, 6.42283356066352e-05, 4.3062571582982634e-05, 5.6330585812447025e-05, 0.012311081277668756, 0.003411324967214402, 0.08481892036358496, 0.12218157005698944, 0.09108756026721895, 0.01674457567672122, -0.003702795358926392, -0.0018264333782420763, 0.0173587263221728, 0.001670041465435766, 0.04112323740487861, 0.07687538042855087, 0.06471742121241694, 0.10809516695007994, 0.09177017045582764, 0.06532489256974859, 0.018715780912989553, 0.026232389340675566, 0.0739994745398537, 0.05875229633135258, 0.04015377730181278, 0.019700868188792027, 0.015854823516327922, -0.0005453476937539643, -3.9268528074864636e-05, -0.0001313755800839275, -8.198275043103085e-05, 8.760777879476056e-05, 0.0035197916909610618, 0.010242250906070149, 0.06649726274001579, 0.1078235292003126, 0.06806750602083482, 0.07277168300366225, 0.006981410335597293, -0.014058687233534959, 0.02111602919441829, 0.007948567641427162, 0.0035305206153441364, 0.07271202627073245, 0.07811486405999869, 0.06539750065677308, 0.11708101974331481, 0.02048646339760753, 0.03187948247728578, 0.0751948780647685, 0.08735820874510042, 0.017346549896989336, 0.014716028335162583, 0.03198346808003396, 0.023147137978210438, 0.00034840297457241554, -0.002107700263883455, 4.209336551931103e-05, 1.7683534002301596e-05, -3.473251004034481e-05, 0.0027807183100505848, 0.019298024518553482, 0.048793905220598864, 0.06309809174810312, 0.062012036541567714, 0.07467012410525926, 0.03094474663456892, -0.0066615940919893335, -0.01615916148134456, 0.020859656962471995, 0.04641718846012495, -0.00986549043513632, -0.017512010967790877, 0.006517575995688766, 0.02655294592089509, -0.034800146770331365, -0.021516458995398034, -0.015655827846103577, -0.01874384688340735, 0.0011538832507410556, 0.03196245984394069, 0.04401374702727948, 0.00777923663500164, -0.0005626968462689933, -0.0032951801442734543, -3.705279603453116e-06, 8.273999167148112e-05, -1.290134198735652e-05, 0.0005142425650084778, 0.013547127616960274, 0.022229333512368363, 0.0375073720726121, 0.036425862598447184, 0.03232540958808503, 0.0381874963409197, 0.050655543128349315, 0.0844018470855686, 0.054399312428918815, 0.03755578137652592, -0.07208281179143332, -0.11151866327584695, -0.04699275201969895, -0.03362057802561375, -0.050974476463672744, 0.004891364215621418, -0.040731277650574486, -0.04538400126601361, -0.026034714704247997, -0.007406775829381194, -0.011965862357478617, -0.002885991727661031, -0.0008946687387869356, -0.0019750642168525796, 1.6455266043621328e-05, -7.509849774122102e-09, 2.0362807309058653e-05, 0.00011179111596806706, 0.01594547567296977, 0.03848566026455192, 0.03943698708308727, 0.03503024024771806, 0.019356949935165846, 0.05388058637767535, 0.07872358791946484, 0.06915653288446455, 0.03244158693572261, 0.06526616953315233, 0.024591060543515203, -0.03292510306703091, 0.02152328579787366, 0.03455589032009724, -0.022765165683585626, -0.053006562053982235, -0.03816244787700033, -0.023417685467643133, -0.016010361749646665, -0.023385727110250217, -0.015397258643021309, -0.01138891660832026, -1.5515658848170912e-05, -8.457984758975015e-05, 6.436219685810342e-06, -3.709510635603305e-05, -7.066795232229403e-05, 5.478874637760697e-05, 0.0144892462226468, 0.04273527330958857, 0.05141514476522756, 0.023764653396410554, 0.036144364775414634, 0.10785217458105693, 0.11338641739484104, 0.07305567518391348, 0.04558393682616878, 0.10052262074708727, 0.08584715814086263, 0.0512249785353637, 0.04416029956745814, 0.007643454565281263, -0.0017132347052011918, -0.030686465048664444, 0.013892914275480414, 0.0002957658039488782, -0.015702154192154146, -0.024114629798102243, -0.024588753103318886, -0.011509235776102205, 1.530500509669672e-05, -2.524537849993779e-05, 1.1710576222372188e-05, 2.638662420102929e-05, 0.00010744181897807968, 1.3714767714952585e-05, 0.0012150674313818458, 0.013580645629446497, 0.005000770376188724, 0.011241202222219198, 0.037356185144864176, 0.09188333658902935, 0.07173478025136934, 0.055862000938630814, 0.06512181138511845, 0.05949662901840545, 0.00895814451077678, 0.0027755975239400254, -0.04070530629180693, -0.0009299409577650387, -7.080317892376081e-05, 0.017236898585716368, 0.022610623086780926, -0.010741878903243848, -0.0058113481913091205, -0.019015834930904522, -0.02414831770745011, -0.005310802783765961, -4.76897589672412e-06, 2.4216922339127678e-05, -7.518978652217222e-05, 2.430861215736787e-05, 4.3205631082935365e-07, -3.371181043410058e-05, -0.0019565771431021197, -0.013517973303267452, -0.005116458023970289, 0.007763218944749832, 0.022476402483826152, 0.00927383597068441, 0.03625984190129441, 0.05556920240033236, 0.040679783146907546, 0.04852614941718068, 0.04087717708836222, 0.012470728984722058, 0.0006289125285159644, -0.01861002227418233, 0.0023635010032584825, -0.008687064947409198, -0.0016547033757629145, -0.002110136443202764, -0.0005858477314779173, -1.5743104171978665e-05, -4.733843895713041e-05, 2.545640581634058e-05, 2.9089356664528985e-05, 7.6007967528576e-05, 5.868586644701339e-05, 1.980058265185801e-05, 3.086796835830223e-05, -3.0379664141367137e-05, -6.919775651495987e-06, 9.344324053999208e-05, 0.004432791067510188, 0.009795695882811387, 0.011339779615618812, 0.009858750683924292, 0.005249308193746578, 0.0038176759329537433, 0.00534479334355146, 0.008262942767206747, 0.008398949974608843, 0.00830082179473, 0.0124474254805426, 0.015083189527775185, 0.007780956020611822, -0.011822753190919431, -0.006830993579248963, 2.3372937197203137e-05, -4.4652115068350734e-05, 4.638473475999311e-05, 0.00010175567784899981, 2.6216445398400807e-05, 1.786173635816455e-05, -6.900648361210281e-05, 0.00011768745905374535], [-5.8224401666236015e-05, -5.5564935619097434e-05, 3.6294446250367356e-05, -4.526926945125388e-05, -5.697442160949166e-05, -4.714656511230073e-05, -4.545625961753018e-05, 3.1462828854136473e-05, 6.122371071404379e-05, -1.2139529648720058e-05, -7.810580791758837e-05, -2.8197992826698574e-05, 5.655777133274651e-05, -4.484704307326452e-05, 3.0160753553582034e-05, -7.879997692304695e-05, 4.639451592615644e-05, -4.214223915842957e-05, 5.378046547249743e-05, 1.4828284987863955e-05, 7.817550535027573e-05, -1.4897023607328496e-05, -3.277733378384207e-05, 3.028452541415228e-05, -9.2670222237696e-06, 7.0254411542081165e-06, -2.6723875339441506e-05, -0.00010229318021975265, 3.454554695248293e-05, 9.397558404558014e-05, 7.089543762776274e-05, 6.672730616922058e-05, 5.245208430671691e-05, -4.6115034946987925e-05, -0.00014041923149717847, 4.068237924530144e-05, -0.00011203582263519376, -0.00010466635829199264, -0.0007378953319115235, -0.0042899681294804, 2.8484838619610184e-05, 0.00012798809579018234, -0.0026704687853535266, -0.005111088898550229, 2.2831990823379488e-05, -9.631730213482228e-05, -3.1224052855240277e-05, -4.409288222415229e-06, 5.315325093786535e-05, -3.850137010795677e-05, -2.3153908943256456e-05, -5.555741778964056e-05, -4.9600715407048834e-05, -9.250763515915647e-05, -1.2753752071300682e-05, 2.7721987240547983e-05, -6.372989823252799e-05, 1.8979268897843386e-05, -4.1772415940457186e-05, 2.3737034238433286e-05, -3.723131248753297e-05, -1.6103853980577942e-05, -1.2300651407832774e-05, -6.687475605117084e-05, -0.00011356884320950274, -4.5056680106640774e-05, -0.006248968165362391, -0.016201470368083202, -0.013879644882033325, -0.010772955156814345, -0.020643036042977278, -0.008690878156845399, -0.016346592902256016, -0.025675094154524982, -0.008048792366595307, -0.004302416078325644, -0.005142823789044363, -0.014946584484740543, -0.00964250507296547, -3.25676072755166e-05, 8.02166470619639e-05, -9.953165792259965e-05, 4.315361167736057e-05, -8.72726969743716e-05, 6.070471886744627e-05, 2.268675880689632e-05, -3.404309716585878e-05, 9.481400123156145e-05, 2.3450491676027556e-06, -1.5120471300294436e-05, -0.00010416012164213723, -0.0036707203781372664, 0.003040883920760754, 0.007599060611689343, -0.009974227977232856, -0.012528440755294277, -0.012848999283206002, -0.02832527044208603, -0.08051594139483326, -0.0638654157753985, -0.03315762315840611, -0.036790278362059614, -0.03527776598831116, -0.06545968132015298, -0.07796514395510244, -0.03204980378379123, -0.008012830102462655, -4.9624875038958486e-05, -4.339520233734609e-05, -1.8352926197770436e-05, -9.758744208065714e-06, -4.64636706410849e-05, 4.01942949815087e-05, 3.543220512245666e-05, 1.0510052913250642e-05, 4.53337958947464e-05, -0.0003735893066671032, -0.002210063887426672, -0.0074824461125846745, -0.010139102814637469, 0.008907856101977888, 0.02138385182783244, 0.013295429229267982, 0.001776686557517389, 0.017111614176067286, -0.03702558243686308, -0.10465802531121025, -0.10909707238674983, -0.06860348066261904, -0.07020599238326036, -0.047127925866338106, -0.04715818022559791, -0.051442714978011936, -0.011164326309251257, 0.03728256893889394, -0.012611147635256696, -0.013606660441719437, -5.8032903830390206e-05, 6.162115981468092e-05, 1.6629295582188496e-05, -4.787537010719562e-06, -3.077643946440008e-05, -4.329072426113028e-05, 6.963823322137166e-05, -0.016485657094131242, -0.033069052775885184, -0.031661186567752034, -0.005190216190517351, 0.02016516442655002, 0.054576316718072025, 0.03567533789587185, -0.0458017367062085, -0.04991141717357655, -0.08808658771089792, -0.17787964821461055, -0.16872150617280104, -0.09961018966808012, -0.09520995731738224, -0.09962491929530193, -0.05486842390646677, -0.005353971462477827, 0.04604421284457685, 0.061302518373854295, 0.020675752260622075, 0.02748760881406301, 0.005920631801762405, -0.0015920820396781226, -1.179933669365376e-05, 4.0272875346400585e-05, 5.958636344602314e-05, 4.383873615590537e-06, 0.0030273710992022034, -0.018164607759949526, -0.023691528326355814, 0.01131482773899911, 0.025871679359519117, 0.09857977872176446, 0.13854846413432156, 0.02726513463771555, 0.0028088200382882576, -0.020035801739059472, -0.05273311126381616, -0.08735239553970804, -0.11374156729577384, -0.10756330325643085, -0.12727778268365766, -0.0981054820628717, 0.04550455402339481, 0.07171576710970909, 0.041100029115133364, 0.05456327761985792, 0.07686522515568633, 0.08671400974497001, 0.014143077423864147, -0.009890037993255258, -0.013724543188939281, -4.030602921847681e-05, -5.801102731322e-05, 0.0013937856060587958, 0.019441089749275435, -0.0020034457634925955, -0.02745502273532027, -0.02409176408381383, 0.029368676444377153, 0.15046076087279436, 0.1059194742783835, 0.10151530623328933, 0.03271574377524282, 0.08547631688113316, 0.10046994192503571, 0.010280505627211934, -0.08782674850929376, -0.10073660344814514, -0.01630464799085682, -0.02152664619627819, 0.020054197338967898, 0.056801170410689925, -0.013025620241135226, 0.08331044689973982, 0.1282069363426149, 0.12142239378838622, 0.05519556807670295, -0.009900321789751395, -0.00754361394385502, 2.257302725943162e-05, 7.474804951793178e-07, 0.0011548310798914555, 0.012510512885594537, -0.0233191986767016, -0.059407622030584126, -0.0641024488044988, 0.032878454014933584, 0.11187294647925444, 0.09920376660669321, 0.06274054448404373, 0.07465599136925763, 0.0810269685227399, 0.021118986210742485, -0.11809391299910504, -0.0677235841067595, 0.008645555742711386, 0.01189187759657438, 0.05414528369672457, 0.043590796680449254, 0.054855921525989254, 0.034022892168222844, 0.08443280627365447, 0.1379180836454104, 0.11357181666129043, 0.10063686200792508, 0.004575376520040064, 5.312423950419191e-05, -9.707009314010662e-05, 0.0049052835771950356, 0.001422539344810107, 0.014293574465786591, -0.002499200756536155, -0.058682916445000524, -0.06113645248212951, 0.05920200967276688, 0.08490178218873341, 0.04684976518852473, -0.0020424355356843775, -0.0013921168242656693, -0.07424432469760733, -0.0840526686678064, -0.04024682206518215, 0.018013294101331845, 0.09683826543434237, 0.03562461029344966, 0.06581795042927745, -0.04358674960682971, 0.019285852244542292, -0.03885404847384907, -0.02426557412378022, -0.005280100427956172, 0.040533636746106265, 0.0414454400259795, 0.006143808836064054, 1.1951754204551415e-05, -9.741542736874608e-05, 0.0005842613742837578, 0.0076225518413075765, 0.02618647539514941, 0.016660592218158934, -0.04216788259495712, -0.06375961610778115, -0.0014321351797051951, 0.06201227822751153, -0.03809128658885617, 0.02446589053006513, 0.06125266648259677, -0.05076883126654867, -0.006692906980010354, 0.1120100999193658, 0.21711537759981928, 0.08750198984458428, 0.002601098390615594, -0.012287527376624696, -0.0943943336375906, -0.11651654532894035, -0.1456567934630668, -0.09191147833506834, -0.031605239673116486, 0.007986003815803843, 0.03191004850160319, -0.00018261875998223202, -4.455147118584278e-05, -0.000128298232134438, 1.6363491390443343e-05, 0.006625479883499473, 0.028672528279250986, 0.0343534680582181, -0.04229805546489322, -0.08034815958151992, -0.03467721475656221, 0.044639637362342145, 0.016816880091580173, 0.051251533723901635, 0.023873056167125935, -0.0298503786455639, 0.03130719819380639, 0.18693592591152736, 0.21337009066900267, 0.15781914533086766, 0.03227352651887334, -0.01328985674106493, -0.1293909960498351, -0.21503426744619492, -0.15386045141088206, -0.13285435070446458, -0.06291817508452312, -0.04743418611361199, -0.001494210182423094, -0.004407033980968103, 4.161271011121665e-05, 3.1872256258706586e-05, 3.560491295055704e-05, 0.002855806390190038, 0.01575327299610686, 0.026936145527953884, -0.050407973606094524, -0.061083158070181054, 0.02049256828070785, 0.02839451601899172, 0.018072439028696242, 0.11062193221838412, 0.13782976600307945, -0.00952210560762027, 0.03498135811883656, 0.09053259755563699, 0.12359065944434883, 0.1458549162799204, 0.08242231803012887, 0.007388338248481494, -0.033751605968488356, -0.12254376931006038, -0.1610345823787208, -0.10168597535596155, -0.09254821589604162, -0.0639817163088802, -0.0034224223742240186, -0.0034936341421890928, -1.010067220708469e-05, 3.413678743084789e-05, 2.269777081592806e-05, -0.0029530974220365867, 0.0026329439672694763, 0.01770825672045525, -0.014444301593321943, -0.046993374215320384, 0.05478640377025576, 0.02542979815627157, 0.033491033839526355, 0.05970054640142984, 0.05266563556314394, -0.0030933611499993964, 0.028033312375934153, 0.022266926987572797, 0.021563307562590547, 0.10828648635352114, 0.11558810327912346, 0.08575168949773601, 0.057594219741833354, 0.013586304453317832, -0.11980546117575461, -0.09687177076954205, -0.105311943960639, -0.05447344810844014, -0.003693312462079675, -0.00038897746907491, -4.2411711084165506e-05, -1.9786678741060623e-05, -4.532495080476514e-05, 1.6978475224802346e-05, 0.0013600993587659755, 0.010602165275642785, -0.02185923489899606, -0.01453806993976528, -0.002040011369797285, -0.04882232012211878, -0.009477583534166091, 0.02979196718367517, 0.029034166444169993, 0.061003485884597336, 0.07068352698954015, 0.0711257839887117, 0.07230265198938954, 0.2077816296775494, 0.23253011125358955, 0.13756070286755545, 0.142840948538789, 0.07808154122541099, -0.01758481851502737, -0.05714350555938414, -0.10008811263082645, -0.04149338459115565, -0.0031216599904407625, -0.0007515697664904543, 2.1284322119727805e-05, 9.94155947236067e-06, 1.0508043787178685e-05, -7.992895475314285e-05, 0.005292563461371024, 0.010546181776460257, -0.05047998788422777, -0.07720805075310497, -0.09604012856481763, -0.12877443964405522, -0.11276360495969043, -0.1084339234648592, -0.06948132306540826, 0.029186948896263554, 0.03469511877834636, 0.04551540006303596, 0.07422030609214283, 0.07555336144808068, 0.19294298632414245, 0.08894675000285719, 0.13481515186320314, 0.1045568928522027, 0.060363220950545554, -0.004108155370267017, -0.06717516871026899, -0.03330810940531975, -0.016975109584681174, -0.013546019627195037, -1.5600358252333198e-05, -1.0912331938124436e-05, -4.108285221881829e-05, 0.0003472141169277208, 0.004069420472319192, 0.019139503635949524, -0.06945782009116701, -0.09628324704266504, -0.08213380914919682, -0.08777630399836896, -0.12186404672718724, -0.19006560186617302, -0.15475986943991507, -0.12952585687884785, 0.005012456357587734, -0.012756641286589303, 0.018313110785647464, -0.0033549758734350192, 0.11271262022659537, 0.022617212290014878, 0.06103286380422123, 0.0395417240074902, -0.06261330086081679, -0.034342399042496016, -0.06735025906516415, -0.05383875078772329, -0.014986563759995358, -0.0068511230545312135, 3.776411377609566e-05, 1.2401845648839245e-05, -0.00011243601453632621, -0.0002948887035400926, 0.0011842213975768888, 0.02159306594901476, -0.05331359722519895, -0.07423522861793169, -0.04679612177968859, -0.14012805573374346, -0.1841516146098339, -0.37663867392158734, -0.3846196087113595, -0.265556949255674, -0.13657168509242518, -0.09450728200744304, 0.0377632017711142, 0.019149581154888132, 0.07071610943273364, -0.003426441601740388, -0.015076801706029772, -0.06943065959959752, -0.06705015529235703, -0.05649446817420129, -0.07451689882466811, -0.0776024402403385, -0.015827261255460585, -9.270151935029097e-06, -2.4084478910808104e-05, -7.302667025025325e-05, -2.2584243843355127e-05, 0.0013386847957046794, 0.007253949300888641, -0.007950611909574646, -0.026209278948938403, -0.04771437727794495, -0.0750049294585538, -0.21740885163581133, -0.2679021272424397, -0.4353398207378271, -0.32841938742387145, -0.2680722325499476, -0.08054068242244586, -0.059746559841893344, -0.056257428442750015, -0.019054364388164845, 0.0071534145034210265, -0.058612759278615305, -0.024498780925083875, -0.028067322079221236, -0.018731224492404455, -0.05047752951915772, -0.10241752071455046, -0.07854969880471985, -0.008003041621486594, -0.00010089319594061472, 0.0001555977770553409, 4.690281989674403e-05, 7.294358305345648e-05, 0.003812509535093119, 0.015452027040721811, -0.01700768349208587, -0.0482965296870579, -0.059730520585152026, -0.0019416489853444625, -0.05732551712729028, -0.11958447501953734, -0.2608131232188558, -0.3012388553708408, -0.15755618476902505, -0.015218905231232087, -0.1624034743360244, -0.0546381520649477, -0.10247518104939883, 0.00037963342410564154, 0.01978487393769398, -0.03648199953480441, 0.010363835572087343, -0.04578223765058412, -0.04337468632810265, -0.0491318545942721, -0.020641497225307757, -0.0005406026499981377, 4.59364357741465e-05, -5.446908715823841e-05, 7.241980828687992e-05, 7.05515066060062e-05, 0.00203046823097455, 0.02874860712717311, -0.02189864631477831, -0.010460805393495967, -0.050499485149253585, -0.025277226703590498, -0.00724291670227911, -0.019594924064445858, -0.19214036679161703, -0.1968095768270113, -0.12964969624272743, -0.09087184380007847, -0.07887429201967702, -0.08006500951916143, -0.032065091077917794, 0.06929437199351812, -0.019101566112221885, -0.03685406594211852, 0.00594232273262028, -0.04173487153628582, -0.04556447060877525, -0.04165578293703893, -0.017578229828783598, -0.0030282180404627313, -0.0030809203349816757, 2.7402212863074013e-05, 4.9244892405364075e-05, -7.054194284856427e-05, 0.005151643466744583, 0.02750433527184132, -0.0034216144980134854, -0.017719296577127546, -0.04317200630822105, -0.019365420230185663, -0.025417584694830127, 0.02561828254823699, -0.016598921795404755, 0.0118077499776379, -0.028780367387126353, -0.07613577412962746, -0.027751045704600352, 0.007344250601535745, 0.10557122378075262, 0.06179391694095808, -0.0006920295508624119, -0.026874002429820104, -0.05208575916461389, -0.03208868124654273, -0.04457430554362752, -0.021304608564218057, -0.007722407648128312, -0.003446989894801207, -0.0035860284959627277, 3.411179710157833e-05, 7.87565259345821e-05, 0.00010366301288630708, 0.0016434247504516137, 0.014053335179389765, 0.01053339389566841, -0.03514152456199359, -0.014693420749183412, -0.07624424923365179, -0.05987789604437344, 0.06713862095795574, -0.049023496771715996, 0.01911915992980999, 0.03450343939204727, 0.01141406398430267, 0.004473194495770964, 0.010905795012580974, 0.03083432288575882, 0.04251360417523879, 0.04937583609839785, -0.04406558783867298, -0.028899825431929684, -0.00023193421344516106, -0.016034485609689904, -0.0017965098819911491, 0.005703569681667614, -0.0013275090991077606, -0.0029036178802094646, 9.80506799443895e-05, 7.849861559064554e-05, 3.921372484283029e-05, -8.870804982401531e-05, 0.011752034526668599, 0.056438177206677174, 0.04709077851357091, 0.07872417956559735, 0.08729541026337137, 0.06330002334506336, 0.06700912536142029, -0.03895290889687016, -0.08713741510982873, -0.07291410903302648, -0.09076410942477917, -0.05539433904186861, 0.017882940875375567, 0.04337224086422831, 0.008451825155452493, -0.03055034895480602, -0.02313997875043913, 0.00581380179416953, -0.0124699543134836, -0.011403614815749133, -0.023485506234190063, 0.0002173671785807274, -8.553762558382814e-05, 7.981333057310252e-05, -4.862704257966443e-05, -6.882512349399845e-05, 9.464210292583466e-06, -6.745229541118923e-05, 0.019491477465397766, 0.07140812033467589, 0.11188243941703839, 0.1335873725638783, 0.1345239007566133, 0.10516037782987164, 0.058013710800636206, 0.044128345670757026, 0.03427158771392623, 0.048873345826684365, -0.015502868759271945, -0.05353094631130776, -0.10408876823228642, -0.1079069343430716, -0.07270770852731334, -0.0038540649252169846, -0.02308987358523454, -0.015611059031013003, -0.012681984019485138, 0.00018147312611840226, -0.003900106814569398, 0.0001954722989317754, 6.124304342405264e-05, -4.645408915986417e-05, 3.504709088670425e-05, -3.177630626277276e-05, -9.591512917029742e-06, 3.349069042709964e-05, 0.00027039227233987916, 0.020979745570754372, 0.036893571163052336, 0.05068121148556729, 0.06521511854792172, 0.0673323221979001, 0.07097846382042182, 0.06599743190091102, 0.057408527138566395, 0.04835237572145681, 0.06549283196279035, 0.06148702650704591, 0.028717676616045355, 0.03604233064601762, 0.04653761915521484, 0.00887709065900048, -0.019549309167840125, -0.020253142912886827, -0.0014809808931187153, 0.00023134700551833253, 0.0005140331532445949, 7.566370830713939e-05, 3.941883004923001e-05, 3.381692217286836e-05, -2.035127375286183e-05, -1.3345907142030862e-05, -4.509644187163194e-06, -3.125255326039269e-05, -0.00041627696510655564, -0.0011227901494572049, 0.005208231352796723, 0.008224230538059272, 0.009579102044787208, 0.009167129639375625, 0.017794077886649638, 0.023369628946497932, 0.020815680691912343, 0.024813249917834852, 0.039416057963105905, 0.02622851713936788, 0.030919219548347494, 0.02732242026659472, 0.020160266582894156, 0.004784552484600073, 0.0056238423821104635, -0.0010634530076189161, -0.0001602917605457883, -6.45148757884604e-05, 5.8795247007789396e-06, -4.8430840497058984e-05, 4.2173054230188744e-05, 4.634367386698391e-05, -6.3044912696168585e-06, 2.6953616231187327e-06, 1.3524529713234564e-05, -1.5690778556254382e-05, -3.6041101059434464e-05, 3.8526827497891956e-05, 0.0008458641160010715, 0.0019395244766838584, 0.003057064629926973, 0.003598854959065483, 0.0022493212417983525, 0.0015324715700349768, 0.0010781495049071942, 0.0021252016524436167, 0.002897127520955828, 0.0023607303563350584, 0.002772624033527524, 0.0043282735824889205, 0.0028237471818318882, -0.0020452107642920858, -0.0014040435109653746, 3.5531822705211196e-05, 7.060851969301471e-05, -1.5780381853220941e-06, -7.385389582148193e-06, 5.8685399763463555e-05, 2.0708449380286616e-05, 5.054073069611597e-05, -1.998912660329408e-06], [-4.227956668623116e-06, 5.6866206260678114e-05, -1.1517981230017924e-05, -1.5668075695910765e-05, -6.985372169313445e-05, -0.00010227204836325989, 1.573248775332955e-05, -1.3691182553686879e-05, 4.013294747479684e-05, 1.1067297989329131e-05, -4.03745383997389e-05, -8.397098565686522e-05, 5.5670169658422904e-05, -1.7192344620661974e-05, 2.286082408683923e-05, -8.87023830291266e-07, 9.25641903523901e-06, -1.1259450214644841e-05, -1.2063433199921845e-05, -4.1773994882039125e-05, 2.224398604099817e-06, -9.455947603798052e-05, -9.639483008534842e-07, -6.442287645040009e-08, -1.3675925015733214e-05, 5.6755336476743055e-05, -1.619021261175819e-05, 1.0622022897301698e-06, -2.228688145366844e-05, 2.637962384099036e-05, 3.2284564520250246e-05, 4.822778940252948e-05, 5.506239583157447e-06, 5.755949334539656e-05, 4.933086047672288e-05, -9.716380708515453e-05, -5.2754113123935326e-05, 7.153581129327892e-06, -0.0005550606626572443, -0.0036249467148816985, 9.645677338644156e-05, 5.309794466105616e-05, -0.0018689750698604418, -0.003461778494606879, -0.0006647044929554489, -0.001713637697981655, -0.0008689348122092831, -4.012401315148698e-05, -8.104656052601707e-06, -2.5991807732232207e-05, 6.112657263740861e-05, 1.1965327864370154e-05, -1.7277772583821626e-05, 0.0001583470668889434, 3.54012361664998e-05, 5.2627206235649146e-05, 2.08207062972332e-06, -7.058700409892003e-06, -9.011337282247054e-05, 3.184664625903545e-05, 5.799520687628754e-05, 9.628189282929747e-05, 3.287826188716064e-07, -3.778951526070184e-05, 3.763498720174466e-05, 2.9751961745371347e-05, -0.004939302895944129, -0.010942272604924657, 0.007727415331636241, 0.007410439308004578, -0.008932591813327685, -0.0062240605071953, -0.019291394951073883, -0.0315828102473982, -0.02638887366297741, -0.021605499984318613, -0.010629575412644641, -0.018088830082212015, -0.010734270863554387, -0.0006311763695575727, -9.429121175565999e-05, -0.00012358602278886175, 2.133505083138989e-05, 1.863520968924899e-05, -5.506367219984571e-05, -0.00012461482419681913, -1.699738197431098e-05, -1.618131669124865e-05, -6.40409673486934e-05, 1.5044216805013006e-05, 0.001399066563721078, 0.004367204020985502, 0.004359905897190145, -0.00886016434529567, -0.029394193955923166, -0.02597682448618669, -0.022283276223334432, -0.0159553171217782, -0.003443242792158903, -0.019622825437777044, -0.05006744087856033, -0.06626801821156221, -0.05979893826560894, -0.056081910678779344, -0.03708073687269421, -0.02266137355955074, -0.010056599548954853, -0.0005298685708725755, 4.1539506182373696e-05, -1.0728922787114648e-05, -4.4063818609648236e-05, -0.00012935751825924013, 3.4630198900584356e-05, 4.394820246153433e-05, 2.1974985453577427e-05, 7.261501196241742e-05, 0.0008431859742270817, 0.0033236937300269664, 0.007717770283867337, -0.015921267355644832, -0.02245510815539373, 0.02243914330444456, 0.03632569206213738, 0.0034125503223338977, -0.034218917267499926, 0.0030584227254132983, -0.014360890634470028, -0.07529726264137464, -0.09003339595579621, -0.14352538852034047, -0.1456683275591389, -0.06546344530852474, 0.031859659949957334, 0.07648930798635338, 0.06286628839604612, 0.026457604871365926, 0.007585011105670677, 7.92852695323099e-05, 3.585104788750411e-05, -4.009747899142147e-05, -2.81938978783069e-05, -6.116465380632559e-05, -0.0001273782972244419, 0.0003467339705331783, 0.010744558037900587, 0.020213003000877583, -0.0012805007722092895, -0.06971147762741048, -0.03858487156445289, -0.026301026169852627, 0.029000355542452047, 0.06940103606292063, 0.02208488347073667, 0.06536973553920887, 0.150725571703173, 0.11277605199637729, 0.08990457559222123, 0.05807194827934095, 0.03508707649764315, 0.011191763056150363, 0.09494966243168453, 0.14272061014789453, 0.1762156521495701, 0.10456643952948053, 0.05461274347427298, 0.01232728017151645, 0.0006157865392637253, -5.246111177427907e-05, -0.00011135802147063305, 7.53619915025469e-06, -9.503665376653706e-05, -0.006347642765463654, -0.021891695550620323, -0.05463013558583286, -0.12481872246852821, -0.11792036341269138, -0.0700014311611577, -0.015956553701140633, -0.020345033649202877, -0.041407670287970016, 0.04385331568880588, 0.041471152507746474, 0.03678444110862041, -0.041680592201915216, -0.08471495028356349, -0.05434999835101157, 0.06030361391786065, 0.07328768128164216, 0.11349972500793383, 0.09500557973566787, 0.12019011415167384, 0.12362710818817951, 0.0850066200040117, 0.012745382841011175, 0.010153156829377808, 0.012283040445819265, 0.00010396834618866201, -3.166835393144708e-05, 0.00021593668667775707, -0.08988830754891405, -0.07371556798230255, -0.04959307085867949, -0.0384452432189964, 0.04562759570523134, 0.05456909907720828, 0.11360400907733455, 0.08885495661972544, 0.040146668591669404, 0.01699346495431924, -0.08606784883838531, -0.24934587390691587, -0.2143473032199854, -0.17417481931825674, -0.2081713282159197, -0.03329951765732996, 0.050209578798250186, 0.06828438457481045, 0.09248194317726553, 0.046589339776356195, 0.08774176021523612, 0.08935207967539686, 0.04479093069614484, 0.030112735888273234, 0.005855272745123955, 3.7026504228245164e-05, -2.3182381803912118e-05, 0.00020071689976021567, -0.062371704105843515, -0.015043787423514166, 0.049427153612822246, 0.09438793764300497, 0.18237663968942464, 0.17633616951772998, 0.1775582388384424, -0.025451056576940398, 0.10608439035597127, 0.07571723796085411, -0.023670229079997322, -0.07417479412085919, -0.01475848213540181, -0.13967173479010234, -0.0006324900915010787, 0.006536969691401814, 0.03184950426961995, 0.027469950704875144, 0.05254591148039395, 0.11335442034751132, 0.12466323620865485, 0.14118455062499288, 0.08284099060481542, 0.010771438614926541, -3.638806563557567e-05, -2.1042358886296795e-06, 0.004713294022528205, 0.005359565236563395, -0.02015689451510411, -0.010890370268333366, 0.0910625921166498, 0.12078973984470803, 0.076949764476496, 0.072585549268051, 0.04473484458380682, 0.07927239879978773, 0.23324875370311826, 0.13984040462257885, 0.060217357395371436, -0.021382046710966038, -0.12457142526783056, -0.13774734184693888, 0.07979562645372568, 0.020422670021657943, 0.08439771799924117, 0.05548077152889887, 0.07360136344773371, 0.13373859296568735, 0.16332655709406702, 0.13541901642079748, 0.05696308698556639, 0.002923821512233289, -0.00011186236520370543, 3.0952735949487215e-05, 0.0006428309356481347, 0.024277910317005953, -0.008596710623666088, 0.0326745310074811, 0.1105200145754817, 0.03303820819923939, 0.02495212483382732, 0.16544964842606447, 0.26282740151810424, 0.22788877285536255, 0.16707401251387766, 0.13476282944797188, 0.16584050110214502, -0.03859580262785347, -0.19047423065887306, -0.10275902935015785, 0.009465496666809277, -0.02353233721623242, 0.07171723204386951, 0.1072508470650137, 0.07690775871978338, 0.09242044591772747, 0.036138372492827475, 0.05296060449665726, 0.021649765665131996, 0.00037017287864424595, 3.763468924701397e-05, -9.55374720398598e-05, -6.808852945660078e-05, 0.01715589428525322, 0.026471982630490255, 0.08457267663959425, 0.11008974321139046, -0.04524334107545149, 0.046147691663027963, 0.23209433762164236, 0.13550363927484133, 0.17892455555984002, 0.058266528713801675, 0.0275942143230907, -0.027252402375912286, -0.25896777266831644, -0.2757135451297857, -0.044242700566971375, -0.05987060943952365, -0.19721576689699005, 0.011896788796571713, 0.07442207934416803, -0.003166893827619987, 0.009422536777852732, -0.012714101055742024, 0.014495547142837788, 0.0003489400722317679, 0.00013323469920863032, -2.2301143394172162e-05, 3.15867318783451e-05, -4.03560536841153e-05, 0.001936931778487427, 0.030099610456586465, 0.08850842891039858, 0.09279907113478339, -0.030234217495374, 0.05178043449124714, 0.07762506265413159, 0.11873428313509904, 0.014803542573113119, -0.047912318715836566, -0.07653757891962482, -0.1610857216059829, -0.23113509159971865, -0.18292251698687087, -0.08631271281364288, -0.19197726478702995, -0.20489359461506362, -0.00524515056067912, 0.0662726760007527, -0.01500624983295578, -0.010612770757693547, 0.011016465227816455, -0.0007830230466182438, -0.00027917245551559736, 0.00010469735998611622, 3.5939921179910925e-05, -2.524937179458847e-05, 2.9416423114466035e-05, 8.571980493406956e-05, 0.007343404414615702, 0.026559460092860858, 0.06539891523601399, 0.042674520356526205, 0.03842178120082314, -0.012321526025031162, -0.12299310101670326, -0.11552551699795997, -0.11718648392715546, -0.12091521376999674, -0.14631732479693196, -0.15694358314996248, -0.2732371651368444, -0.2619036648572524, -0.2448181701444109, -0.3080030501345521, -0.10815874903565262, -0.010674380285443102, -0.018641618118958397, -0.028104563886011596, 0.0051775442054806916, 0.000919669289124384, -2.944590748080762e-05, 1.1010449026538228e-05, 9.442658454383791e-06, 6.991076969443919e-06, -9.043317260190519e-05, 6.20046330830262e-05, 0.007446961151415941, 0.01577674434949325, 0.02937035750995398, 0.08577019391444428, 0.09280537380369817, 0.021470927556595305, -0.11906429141936951, -0.17784499343113344, -0.2397155384261797, -0.1527060906882867, -0.26587083283288027, -0.1072931483591327, -0.11225963404363842, -0.24160401066079057, -0.19697779921609113, -0.22291952581525687, -0.019888035835280975, -0.010940602313153708, -0.02411212233529644, 0.005053625489647148, 0.00292342995441393, 0.006132349531073201, 0.003125592859688329, 0.0007207332564270375, 3.663697959121036e-05, -4.392346502839162e-06, 2.5942420457646754e-05, 8.50348160298836e-05, 0.009052286035006584, 0.018701867181513683, 0.08151044009990915, 0.14270992673806895, 0.2092948941508852, 0.14444145044168918, -0.06640172602085702, -0.13017294289767034, -0.0893221677738142, -0.16802198516487338, -0.2088198135608685, -0.13874161101938737, -0.19260383502535625, -0.24905327306247846, -0.1525748751680912, -0.02118103624233186, -0.012341815462350587, 0.05614258600645615, 0.03424189812159974, 0.012367874237477039, 0.03605269949384592, 0.018171950852145576, 0.01928644170675364, 0.00916291594075753, 9.580623841889662e-05, 9.136856652440169e-06, 5.2442013645410374e-05, 0.0011642686637261482, 0.008856373376654257, 0.04201511125315171, 0.0886336321666296, 0.12124458231732635, 0.17847458486789275, 0.15284402856819213, 0.04978363772459224, -0.023084457932543736, 0.03262381142271517, 0.059381225500859974, -0.04424065351612193, -0.037495796001509, -0.008662427700419615, -0.025724031049685635, -0.09296429499283927, 0.04761648043729622, 0.07483105341837243, 0.06900497426718767, 0.03892201109733149, 0.059407113413591145, 0.030569263734284095, 0.02595271645138936, 0.012291271505346079, 0.005325349253245531, -0.00011457355061975064, 3.853545199953451e-05, -2.641862399555762e-05, -0.0008793383891358235, 0.0028694721029750327, -0.014213290238745202, 0.017808604841425067, 0.16795059347951252, 0.19799696640975561, 0.19643704652457225, 0.11400249225747087, 0.09270503303979982, 0.13263434241575636, 0.11108853112165248, 0.050555930880660294, 0.08208999594436685, 0.10693291500738884, 0.10226953912705036, -0.048789568200885425, -0.00718554060171354, 0.009538032370780767, 0.10564736350931665, 0.046652284551080433, 0.0594669795478414, 0.0789010962981318, 0.04511890090338209, 0.010304152145302874, 3.958403617912047e-05, 5.058130953662096e-05, 0.0001117549574054277, -3.744839293115991e-06, 0.004984641151653591, -0.019466697419032654, -0.06267416489110363, 0.025578774816934234, 0.22865194788313264, 0.2584972013990371, 0.2602285886397952, 0.27611718983042494, 0.14760287571494315, 0.038062517036854294, 0.10944564697616696, 0.12884187106892941, 0.12713167288367808, 0.16509168666746998, 0.03642596182581562, -0.05537644344830353, 0.04647914655292214, 0.027815737178807098, 0.0368604544600622, 0.06884727947284475, 0.05222284064173469, 0.0743728893563345, 0.041762835183693024, 0.012407845169850657, -4.83277013782031e-05, 3.820076326257837e-05, -3.899958160527224e-05, 7.599933316627577e-05, 0.011603438055674086, -0.029342685247542404, -0.11538066016426518, -0.06754425147157093, 0.13354071256206818, 0.2591337351560292, 0.25288025225792415, 0.2564878218801934, 0.18738094800209212, 0.1900404390379228, 0.21249931791541657, 0.06646176206909615, 0.022072423327546973, 0.025422023624246927, 0.004359318981067036, -0.003002641875538686, 0.05579017904018829, -0.0688500781206595, -0.055696595527969725, 0.03731507025326032, 0.015272738906388316, 0.06910943022486626, 0.014822526824071681, 0.0032838326810171324, 0.00010500770110300317, -8.574638463514078e-05, -3.1425631172732946e-05, -6.9129899890414535e-06, -0.0011021843777177767, -0.02493527677839411, -0.07151384623936889, -0.11979392058844023, 0.0027496677826531063, 0.1373565394661746, 0.24901850834023317, 0.23790346534209084, 0.24412647326303374, 0.22252951346076838, 0.10444589994759956, 0.049289944372422734, -0.12752455016617026, -0.10633229682823327, -0.05235664075284564, -0.044374680357757525, 0.032122231169127616, -0.06760760860166176, -0.03780942840520197, 0.026687485078383175, 0.07295737835270406, 0.07936352493070033, 0.04040024774484536, 0.011980943868958985, 0.00017623698688140876, -4.10285971706152e-05, 9.457144884429307e-05, 1.9343242418893184e-05, -0.005986447178719227, -0.02035698483444193, -0.0474014554016953, -0.1026378879356689, -0.07435226136243375, 0.004454586564000773, 0.08508167171862961, 0.05606393083517567, 0.07466172219417963, 0.10877893236105855, 0.03471358004678054, 0.0776135562285025, 0.004892106766054581, 0.008680596024676046, -0.08075165986795603, -0.14200657649210646, 0.053998484993514714, 0.020091271762531684, 0.05869109940181502, 0.07429481797864682, 0.08774209863769655, 0.06594946260633125, 0.03213839249627493, 0.006241714808185723, -0.0013117003314156992, -3.4583756034429035e-05, -3.6596535234838445e-05, 3.072409432071597e-05, -0.002344494842061656, -0.02133480506427637, -0.053043977409762945, -0.05361584031755784, -0.08876750541729153, -0.06825163984824482, -0.10991710266264254, -0.03738246082889683, 0.08539596618487758, 0.10636914980407872, 0.1623312021597044, 0.12621695639515043, 0.04603273322718022, -0.04419564121704518, -0.041330350629552405, -0.07364933144409265, 0.104954149069761, 0.08348785736636968, 0.01091258888784887, -0.005689029538762648, 0.036486907240732294, 0.015516041375171489, 0.0015152298602861191, 7.423410694018031e-05, -1.0325817603083854e-05, 1.060886387844894e-05, -3.6899684838602054e-05, -9.541314016229012e-06, 2.2414605383307922e-05, -0.017668862009540553, -0.10086307603383449, -0.08700947016566313, -0.12537477091046179, -0.11356898306555137, -0.06338058273777282, -0.09934682479700625, -0.03863379296982826, 0.12170021710736374, 0.19967187866591787, 0.15059271081365003, 0.13234666398082875, 0.14601154588158544, 0.10280510996593478, 0.04626885021784555, 0.0010982587228299907, -0.07272144286185296, -0.07963631008787793, -0.0554156135624897, 0.00839598537950599, 0.011327861168444026, -0.00010560034301153276, -8.584884614127911e-05, 3.588950571536079e-05, -8.114497952452286e-06, -5.313796347308282e-05, -7.673267169390258e-05, 4.670835895602411e-05, -0.03724420874307745, -0.12162130327371783, -0.14537784755760946, -0.19450258580850585, -0.07696787375701958, 0.029764429217675845, 0.02455236857865929, -0.03407658177425399, -0.03405757162591783, -0.019696762066391944, 0.08988636391447334, 0.19910942267069073, 0.1615075142895901, 0.1443208760286114, 0.037386137905010566, -0.14086925315040896, -0.13095552525489282, -0.07911703856206526, -0.013140208748946412, -0.0028456737462658924, 0.0008189961816831755, -0.00021268593896417226, 2.4834008360569666e-05, -7.373759126814903e-05, -6.307145104816032e-05, -4.071367716434716e-05, -2.84385955359085e-05, -1.4135729112788517e-06, -0.0003833735800179545, -0.03686734625638883, -0.059019635283460145, -0.06516085633826683, -0.02943151992269208, 0.002976477893002522, -0.01404753217363362, -0.11617092775212282, -0.10830380361384315, -0.08633732467269274, -0.06469649054791012, 0.027892499416045054, -0.058899214525498615, 0.0018297600893837456, -0.013250736355071306, -0.14196913047384901, -0.0808672398721679, -0.03962710078407015, -0.010070507470705656, -0.0011214783461853315, -0.00041327270765662233, -8.770792956642276e-05, -7.678867099080987e-05, 9.152849063044049e-05, 3.403571908980441e-05, 0.00010548777156114778, 7.456209614999782e-05, -6.006551230244074e-05, -0.0019285877315768452, -0.012081194221988105, 0.004200539060053524, 0.010618795809919031, 0.011958213042525393, -0.005654756866416401, 0.0014395350911718052, 0.021177439716385662, 0.04034068217611141, 0.05118357943653308, 0.043156094647246616, -0.006819296077892424, -0.004614942279838804, -0.017818542367526682, -0.02839472357209339, -0.05778914457859898, -0.023491236303892972, -0.004902519629847288, -0.0012877057262153573, -8.001895090142976e-05, -6.715965723851014e-05, -5.2739708917076434e-05, 2.2490144209118988e-05, 6.434134662147565e-05, 1.6306572979789584e-05, 2.287155064135301e-05, 3.7490706847745356e-05, -3.837670590636209e-05, 7.331159181778e-05, -2.8296173164677355e-05, 0.0037296291484925142, 0.00850767496837889, 0.007738900019410384, 0.0030045296556082623, 0.0008739883434596096, 0.0007663507609756921, 0.0019228410497961962, 0.005400728957170575, 0.0061542095524899035, 0.005942469621303146, 0.00657470133406105, 0.006563360634696232, -5.156412254914229e-05, -0.04331237024368465, -0.021526938935400808, 3.0520888845143605e-05, -3.9461174782870726e-05, -3.9161642048262056e-05, 8.098062821722478e-05, 0.00011037436006601628, -2.9091353492399997e-05, -9.197542600036323e-05, -7.585613644034711e-05], [1.3745296063100374e-05, 5.625063487783964e-05, -7.917413519627527e-05, -7.366687945714559e-05, 8.976438144664342e-06, -5.1380952680572024e-05, -4.5264322747123805e-05, -2.3396471671891084e-05, -4.368631620507285e-05, 7.937938436389412e-05, 0.00010070178213584968, -5.7420585843693966e-05, 7.498132591615441e-06, 7.836122793695053e-05, -1.2474393821728144e-05, -2.4152303582421946e-05, -2.4465175355541787e-05, 3.2847636442747387e-05, -2.6864382842246548e-05, -4.437359563954359e-05, -7.261742920497183e-05, -5.482897238931398e-05, -6.3495515916112135e-06, 0.00010348277793849434, -8.433147804093016e-06, 3.113414660574916e-05, -2.5392236434594224e-05, -2.9733734145854966e-05, 2.5472885089322786e-05, -3.444233348436007e-05, -5.021960809482929e-05, 1.3146263791779242e-05, -6.194216532230073e-05, -2.8693600354981668e-05, -5.993993449288686e-05, 5.343604713874984e-05, 3.733474226757062e-05, -1.234164377568796e-05, 0.0014172859825759688, 0.009099138912585687, 6.106050262246679e-05, 0.0005892209669322253, 0.004702919522222871, 0.00861702499945439, 0.0058028806856992785, 0.010243051507805844, 0.0054399362618062965, -0.0001368828836418645, -2.7216014975269978e-05, 7.603016165802279e-05, 4.107579222809673e-05, 4.373759089298386e-06, -3.70004092973296e-05, 1.1417457672889612e-05, 0.0001200259247065479, -4.33603162925642e-05, -6.365490145351673e-05, 2.084114842828252e-05, 2.12338742351661e-05, -3.7807348860009795e-05, -0.00012924862733738857, 8.339244841803472e-05, -1.3865147202817656e-05, -3.5525373191748782e-06, 5.439978586829991e-05, 5.2446068349420994e-06, 0.014179411631879564, 0.03645055198035592, 0.017402185971242184, 0.012051013518111848, 0.038544700889255545, 0.015184453986423542, 0.010099393479125977, 0.06143204682237423, 0.04207677551027138, 0.024151235597635885, 0.00636994165062004, 0.010239044204751274, 0.006745757359153549, 0.00027759763346946035, 6.838332077213398e-05, -1.4506398808772605e-05, 6.376194372776303e-05, -1.2600534457227147e-05, -3.009231406106089e-05, -4.4116997898060465e-05, 1.9382058951675588e-05, -3.7857901184610836e-05, 6.716084741210896e-05, 3.837497638445581e-05, -7.394001185137877e-05, 0.0059045948210407545, -0.0023658907158583434, -0.004574469758850329, 0.035573659274025934, 0.04372205837501244, 0.03852333647198866, 0.06126952119681299, 0.10008630878562891, 0.1107089728927681, 0.10905102103732071, 0.13702210842344492, 0.12643110563727578, 0.1347147791123645, 0.09361002691239197, 0.024135147030949593, 0.006701013846585386, 0.00015804732508607134, 3.955723942757993e-05, -1.9704635896218077e-05, -2.9370627496443923e-05, -1.450575885892575e-05, 1.764628748418634e-05, 2.8535345715850015e-05, -5.318188074152727e-05, 2.736543844628597e-05, 3.271183157083196e-05, 0.0024201947655256724, 0.009551674657736218, 0.02144070991960738, -0.002817527098734246, -0.030817811040956423, 0.012417448591499885, 0.04790468868818584, 0.08447261179261846, 0.10044873520839334, 0.14326129954938083, 0.1398145869383745, 0.13112819380694757, 0.16942741722537177, 0.1773780172256063, 0.16175204610461383, 0.08515437051050508, 0.027237084730476778, 0.015060593895649706, 0.0005831831861592452, -0.002316325615363388, -9.181225449448176e-05, 2.9053232041586888e-05, 9.060891748647186e-06, 3.254243984341216e-05, 6.409697216649371e-07, -2.2243081100731386e-05, 1.1925215630765668e-05, 0.0003764750432364076, 0.005287526946913502, 0.023933594222440145, 0.010811834116677955, -0.014622097969822398, -0.014261734059942213, 0.025398262634088273, 0.009796799861653448, 0.0025459841939681344, 0.01672110690419824, -0.004492815631107177, 0.0710784854491694, 0.031152523542854513, 0.003884023470779248, 0.09862266588256172, 0.1127330012571911, 0.0524086924321405, -0.030063795630755008, -0.046395324039289615, -0.0542638684564475, -0.02838964196699992, -0.014903210612134518, -0.0032695073867003, -1.1403180127308191e-05, -8.035693483006236e-06, 3.0111032888448238e-05, 1.595679344475875e-05, -0.002317617642158534, -0.013763888248951878, -0.015668007115320633, 0.025399484531381616, 0.014686970593554513, 0.002445262165620545, -0.015282767172436418, -0.061357861404586676, -0.0809609615860591, -0.021246787380705828, 0.009193885000150382, 0.09264483135729273, -0.02553014757921385, -0.12329820128959906, -0.11738608211804752, -0.02798135993055597, -0.06582263494770646, -0.08917046387483292, -0.10053593460462205, -0.16640171964870773, -0.12203683529723412, -0.06939641012029127, -0.023303045594336737, -0.019331236586280727, -0.013748714733423721, 4.413808865036245e-05, -2.4624500217437218e-05, 5.774416120916696e-05, -0.017657854752422365, -0.010385983344911576, 0.0061107151820224415, 0.049770825905773794, 0.04741706727742001, -0.042474733558790494, -0.007533760441634538, -0.010489941546456093, -0.016756212292261628, -0.03444074795968663, 0.08770915951543004, 0.0622254219243453, -0.04292281704086759, -0.06225433630907455, -0.04745405784775969, 0.013406082288029496, -0.033563011174227775, -0.06322365167098434, 0.009749727779751815, -0.10690929682110184, -0.16027724852615674, -0.08397488253423947, -0.06222467524701168, -0.03376014835300117, -0.00627107218187096, 2.0468914127330466e-05, -1.3166580824694862e-06, 0.0001379651202425867, 0.0007739257518555761, 0.007351448120491348, 0.04716346003020175, 0.055299880121606144, 0.05930507432031687, 0.02102020246440542, 0.07110899643930975, 0.011476331615648986, -0.07488770056483059, 0.04599248756795078, 0.09816369807897486, 0.11803470632894009, 0.1562139516356236, 0.10738544053690662, 0.06578588773999727, 0.0854478190747261, -0.027952875120743816, -0.10559741105313082, 0.004829713372643858, -0.09102291079472677, -0.13617439541732762, -0.09372434372773064, -0.06541519289676011, -0.008313151054197625, 3.462214925214023e-05, -3.263443886863829e-05, 0.00855989920866291, 0.00814611445656806, 0.018016421465339747, 0.01575800152125463, 0.0252616570714466, 0.020782717409250542, 0.04001767479006599, 0.03008414290061729, 0.02136851841002227, -0.006448311108391317, -0.023919992389884206, 0.07125158775434405, 0.06058481383634239, 0.20984945723128592, 0.3501895385046854, 0.23485023639562416, 0.04970825553066496, 0.016200191037859146, -0.052272373635743004, 0.003562717362489232, -0.07680836966193327, -0.14171353694355707, -0.13677237735592226, -0.07305576807176013, -0.0397444066043308, -0.0012210992587342307, 5.881143648505968e-05, 6.684987689789753e-05, 0.0009351138592144427, 0.04580866982014235, 0.06200451192179418, 0.053519201023188544, 0.033246645561333915, 0.0032224674660945606, 0.03513997487117289, 0.06069867588207304, 0.04854586341597676, -0.014454386851868227, -0.016642276664388334, -0.04594990277272492, 0.10726359133929275, 0.18834204661385315, 0.21501303114398246, 0.03955801086866329, 0.08413868354473993, 0.023778905383251052, -0.011221611147858045, 0.0007407102724462902, -0.06334599391527532, -0.09338469403883806, -0.0728728949320645, 0.009168852756280349, -0.011285830500792765, -0.0007046157039867593, -6.697409193269382e-05, 7.132414282837993e-05, -4.5140413499657215e-05, 0.03212165605752367, 0.07812933171732905, 0.06165496686036809, -0.030185210697379113, -0.07205788618294913, 0.003191515942016999, 0.018504040767189096, -0.046867802097356207, -0.03404470273393473, -0.15389471843853458, -0.1373566762277254, -0.048313197999779525, 0.02973790604001005, -0.050308750259599334, 7.172129002287904e-05, 0.0978635884638006, 0.10958054630998915, 0.021193852868983922, 0.033947984312933444, -0.01730242914454125, -0.012170181735262027, 0.004749966366182142, 0.05581353810026901, -0.0002471198010157299, 3.1393778169443856e-05, 6.348907783982936e-06, -1.0296498410835155e-05, 7.688822126928057e-05, 0.002124875768650238, 0.0452561502535979, 0.002451684270738652, -0.03403853384245885, -0.07493879318431947, -0.060137955470065556, -0.04851080800879708, -0.0328772870023424, -0.10334098126917729, -0.17867576315462663, -0.21429146779799296, -0.1876250832706374, -0.13853655604168585, -0.20413875979413224, -0.10263868890846149, -0.04484597422154043, -0.047074080964327795, 0.024457101474365323, 0.15667641191630705, 0.05717759142407663, 0.06372034453014379, 0.07287894214986182, 0.06936446813478277, 0.008644803666580008, 0.00013461046831036118, -1.3194809933876244e-05, -2.0274988829315097e-05, -2.3173261856743564e-05, 0.0006490809377710889, 0.006872087947821153, -0.028950574427136316, -0.022360272744833275, -0.04791639827108541, -0.1057870923463171, -0.096541175407117, -0.09461066363183253, -0.15567616348477642, -0.2145366431445194, -0.2967586698578871, -0.23088569128106048, -0.20473755118211792, -0.19624836451375632, -0.18632274743245822, -0.15855867803975368, 0.01787547244667915, 0.15325027566902188, 0.1866373929124908, 0.07329638545036343, 0.06472181764421316, 0.061996303384533255, 0.04869099740139654, 0.016432402966395823, 4.307426037975898e-05, 1.890648319277497e-05, 4.982107647856875e-05, -6.109267137121682e-05, 4.7991857555830304e-05, 0.010557036575110696, -0.05491059321292632, -0.0782931885870096, -0.09460214845194949, -0.15887015900810927, -0.06981650526793066, -0.10935427270845766, -0.14087524079819777, -0.23905746402593564, -0.4312007794790054, -0.2958127107996701, -0.13358378999284573, -0.17411776815154803, -0.27008610854125437, -0.0961041631474886, 0.08730953203809586, 0.1882752242425461, 0.13070339064570333, 0.07004510540481816, 0.06351623593500794, 0.049928905661537126, 0.04694982034293904, 0.014532630156305888, 3.2904966062428705e-05, 5.3912385642312736e-05, -3.3414340875921364e-05, -0.00010116392911833933, -3.618793373889334e-05, -0.004211550148709164, -0.06687237248461854, -0.11386544001649682, -0.1004943486086691, -0.10220982556330095, -0.09492861383608459, 0.008521894654762118, -0.08446454569633405, -0.23310635926826898, -0.27124881267893797, -0.18838910143068113, -0.10581779317695866, -0.11738698700888518, -0.20348551811423846, -0.0796955509043753, 0.1128078686514825, 0.1296993014341871, 0.12166200633289163, 0.08594254581427226, 0.0818388278223612, 0.08597217173073393, 0.04633764163581298, 0.014753286933674057, -0.00025767031599715015, 2.3076687986908846e-06, 5.143470943702171e-05, -1.7959163077611814e-05, 0.00220865614322695, -0.005034490610180425, -0.06508605412909539, -0.055545864938416935, -0.04502252539344404, -0.1117647950046913, -0.015355494416885447, 0.0816914851285901, -0.07484464591043034, -0.055417398274499916, -0.0463693981384277, -0.01664782247950076, -0.0510430624919992, -0.16870008558157784, -0.26030811294551026, -0.10942750061932446, 0.055177419105303264, 0.17404170916678657, 0.09248161288853574, 0.11691948349347032, 0.05123487479422739, 0.012301874497732658, 0.028356536651036105, 0.004308357696525267, 0.0005265024322229413, 3.6265165664725034e-06, -6.778300313293583e-05, -2.394405445143201e-05, -0.0005396828282448206, -0.018588137347823934, -0.04582754591082817, -0.0232549104451702, 0.04305711263426157, -0.010263602641094074, 0.05934243154787799, 0.05088875295500861, -0.052071614899011215, -0.008588890262005714, 0.041305909630322296, 0.00034651711348492953, -0.051581180817968045, -0.14069005791780742, -0.19476213317237276, -0.18381013193524623, -0.06620535517149825, 0.12486871679991418, 0.10316998844304029, 0.0043177139397970275, -0.0002755104516801495, 0.012704532549363212, 0.024299163407703835, 0.011451857239370818, -7.089651603226773e-05, -4.309181803994211e-05, -2.366334786867928e-06, -4.7361734198487735e-05, 0.01153014454719945, -0.028178702663859894, -0.021735508201082165, 0.027003769696150724, 0.012207942036287745, 0.04288090345339812, 0.073874544748767, -0.010446205841964634, -0.05556357671116131, 0.022601548826610706, 0.042465741159431955, -0.021970164793424566, -0.002760236467789158, -0.00975466261118256, -0.10292993607830252, -0.09061225278691493, 0.025088119003398714, 0.07392325452484283, 0.014848957230781452, -0.06783264518114995, -0.01011327103942078, 0.060660224524087224, 0.05410970834100173, 0.0034095621940599865, -7.0767701755414544e-06, -2.8947612108472882e-05, 1.4011522034508603e-05, -8.712994749280568e-06, 0.022288275790913727, -0.02764664385011585, -0.011021203082130683, 0.0316881291671087, -0.011904820480394672, -0.0312868655002808, 0.007377501769666452, 0.0775115169124168, 0.1416060350481488, 0.1806634548565351, 0.20147658877594218, 0.18786257649711832, 0.1435231448581489, 0.06107275555525747, -0.03918319800917719, 0.012866871345237813, 0.05049682479591029, 0.00289795234043107, 0.00900857085174126, -0.05832700868490341, -0.010638727309803494, 0.02243308167465047, 0.01760913439418147, 0.0014103706014414394, 3.641205440804628e-05, 3.7828983237396345e-05, -3.812391909772313e-05, -0.00011658470293676794, 0.0012054199641038789, -0.02880373972845941, -0.00010918109828697824, -0.009291952083193649, -0.0333314891749772, -0.0739802162268307, 0.011532714807354133, 0.07848454921325378, 0.20655719169262138, 0.26565494455895683, 0.4101065470154738, 0.2632659450053785, 0.08449781841274012, 0.1497637259724182, 0.035212615807331496, -0.0031928142313899428, 0.03732862624104135, -0.02772399253399586, -0.025337111068230063, -0.06045713608271564, -0.018945100031572293, 0.002276251042691092, 0.00879211375713182, 0.001044215822249918, 4.910220128884531e-05, 4.244888386398172e-05, -1.2629499222840257e-05, -1.2775589006475789e-05, -0.0008861590987061863, -0.005749071461486525, 0.010682898787442434, 0.04306596710111668, -0.013856489625719146, -0.02446919968779819, 0.06645077067850347, 0.19789532814400465, 0.12170846025967652, 0.25827716894292163, 0.22444337752219337, 0.13578555081265553, 0.07963181197039064, 0.06053915146041545, 0.11326274111860785, -0.05226758571055908, -0.04847518780651435, -0.045707009917239784, -0.0470882822247042, -0.08483809725460881, -0.05115518106912465, -0.009701811604988009, 0.013765589922624636, 0.00024431106105801036, 0.0025628157356158946, 4.305853300124649e-05, 6.991798291255553e-05, -1.689698020675316e-05, -0.0004871746251956885, -0.0017769472091181118, 0.01672821639831939, 0.07054756724182637, 0.04904528283620075, 0.018500030630672095, 0.06754241817994618, 0.13631985462368373, 0.05482753442723289, 0.019779924464321072, 0.01098703727151297, 0.012969165950131374, 0.07447309771131126, 0.17955302765556788, 0.11051152954547987, -0.11037010435821858, -0.1147176438971115, -0.042734758232920715, -0.07694058780623435, -0.09115743264894209, -0.06378604861862397, -0.03815102527566874, -0.00306884593805022, 2.074262744231394e-05, 3.573012292901794e-05, 2.9871588570210726e-05, 1.3991560380143837e-05, 7.908699405716365e-05, 0.0002490509341438068, 0.0020396530017818015, 0.000302313034288834, 0.04253572581051489, 0.029416899559866365, -0.01532698854247697, 0.006319212874198537, 0.010460317611755556, -0.04324142993186048, -0.12472894836211271, -0.08929494024918527, -0.08195725401650382, -0.08324804827018001, -0.04852005526207682, -0.022618310869296453, -0.14356946560465786, -0.10963876053437366, -0.05934548651339813, -0.057623560056396815, -0.07181161356671485, -0.051878276403751394, -0.04816876346142573, -0.020531002895983645, 3.5110806062891176e-06, -6.019401943455101e-05, 9.22721637482428e-06, 2.4149892226758444e-06, 5.0602641452979066e-05, 2.264565133143845e-05, -0.0009615395301936381, -0.0032268142179859884, 0.005772616662255214, -0.02199318043202516, 0.014455769098537928, 0.04795720152878001, 0.010181641425220338, -0.04403252130075532, -0.00803119794932523, 0.06516956810261669, -0.0046293004872567595, 0.01904816806429126, 0.01913078721766722, -0.06138250959648626, -0.04364101235874349, -0.09347063132355565, -0.04302450081966185, -0.029808197524126362, -0.02025063175898851, -0.03892999184845568, -0.04727521291577641, -0.021297195828226458, -6.196693941861168e-05, -3.437910150335768e-05, 4.7316832012827116e-05, 7.374688633972196e-05, 0.0001069699648701646, 7.410836881592964e-05, 5.375173653075083e-05, -0.001953171460569695, -0.012738063189517137, -0.007035139111608621, 0.012865537120071664, 0.053045075572409485, 0.05361512788849465, 0.04216432988325186, 0.057005502828259544, 0.09363130280833393, 0.11997372035741183, 0.13580398713807934, 0.029145339084441967, 0.06612927117304955, 0.009290332668256934, -0.031311519875181285, 0.0024228702005745658, -0.016310562515004977, -0.003400687028273224, -0.032877949453607856, -0.04448889926430888, -0.009723600955848571, 2.7474208903065868e-05, 5.243474508515289e-05, -9.121754969840352e-06, 2.269149601885238e-05, 6.249861081834423e-06, 4.3952354283889486e-05, -0.00269308661191416, -0.016008669771007643, 0.005201943915436405, -0.0006547696671846524, 0.0007220276802784552, 0.005581842315062993, 0.05539077561757235, 0.06973806878465125, 0.05995394983228293, 0.07467458636583332, 0.07664442948350864, 0.04067181413640579, 0.014813059269436317, -0.004795923408751906, -0.0054420181827639705, -0.010987870750432456, 0.013598547686024386, -0.0018900145775496468, -0.0004960451349549205, -2.0975292714215203e-05, 1.2081067856035212e-05, 2.0139959211295064e-05, -7.330304088913858e-05, -1.1638404563779524e-05, -2.0491411495135523e-05, 4.3739932833410535e-05, 5.540035991061169e-05, 4.0496990451734226e-05, -2.04558602371658e-05, -3.300457141378511e-05, 0.004865989808852392, 0.01043514471640149, 0.00940901711389713, 0.004915671267378197, 0.0026173531158501504, 0.0019813859590339074, 0.005976588398371477, 0.010137778017342015, 0.01028564022681117, 0.007961863796747582, 0.009502007845266284, 0.010384820356157076, 0.003369467657294523, -0.02934502435167761, -0.014851580181317173, -8.599171607067504e-05, -5.421619784901069e-05, -1.227225007357149e-05, -6.84126561170915e-05, -1.5928023866447397e-05, 8.377923271225479e-05, 8.770594833469236e-05, 9.594837437037201e-06], [3.377515618264021e-05, 7.558135860573641e-05, 3.991876494901305e-05, -2.281555788531244e-05, -3.6620248378481545e-05, 3.192641999398951e-05, -2.3634760755494737e-05, -1.3387446355834325e-06, -1.2790796281146204e-05, 4.3427216638734556e-05, -9.896881164244911e-05, -2.1937025455741105e-05, -9.072693471269008e-06, 1.4964998681528037e-05, 3.834495186728193e-05, -4.801541819147658e-05, -1.1526063154545407e-05, -3.683935510191959e-05, 2.1801776885166353e-05, 1.0925994236555618e-05, 7.69446048391944e-05, -4.200827429187202e-05, 0.00011409338902510752, -2.8106745947332405e-05, -4.178814500764848e-07, 1.567907119266125e-05, 3.091306842782114e-05, -6.519825479351728e-05, -5.301701891241135e-05, -1.474726731468566e-05, -6.921429109667796e-05, -5.8585925614656525e-05, 1.5820309386963383e-05, 2.6973798830750863e-06, 2.954527809529208e-05, -3.875746275321743e-05, -1.4857726107060725e-05, -0.000111005616281564, -0.0014275061960233673, -0.009082824091763586, 5.660120006259567e-07, -0.00220935017271018, -0.01100626363496945, -0.015063178834066849, -0.008571465281926918, -0.016132086702792123, -0.008300736854019688, -3.06549619901167e-05, -9.427207164011637e-05, -2.952698065644283e-05, -2.9986353451431454e-05, 3.911046901036181e-05, 5.385318660932555e-05, -8.075693735563148e-05, -2.9887209129507677e-05, 2.3133859775483827e-05, 4.4756302981646814e-05, 5.604032313401176e-05, -2.5260748172909587e-05, -4.329663904492822e-05, -6.595654134307767e-05, -6.771414457871973e-06, -7.83792198148759e-06, 1.0379101514504446e-05, 1.80177082929463e-05, -4.1771035267273555e-05, -0.01504617932647036, -0.035777015114916814, -0.008805287233558534, -0.010391697660070327, -0.04974702263906584, -0.022561694032551736, -0.015031757545129783, -0.049857131557346834, -0.025339021244219634, -0.010098057763028056, -0.006738599577048248, -0.010892496236016885, -0.004467316953094192, -3.2184683726838e-05, 1.8538896045249664e-05, -4.699941237148467e-05, -4.9900302000064205e-05, 6.760508020383033e-05, -5.8436169352145615e-06, -4.366295581523182e-05, -6.955612101538143e-05, 2.0719784974308007e-05, -3.5236035023906328e-06, -0.00014675835406903565, 0.0004261866118948623, -0.004740268791340125, 0.0005042579134659051, 0.002267720511156456, -0.02197201758684845, -0.032839963130274485, -0.030936232729782007, -0.05348716265472329, -0.06913520380731607, -0.04822220383500822, -0.049490914261387554, -0.052328491262766196, -0.03918797057551073, -0.05841820754678743, -0.05071521884633733, -0.019409445551894115, -0.005323669227478536, 4.601653001027711e-05, 8.708142019300593e-06, 1.5258935236052643e-06, 8.901356778142569e-06, 2.894322623415796e-05, -4.4693416762049486e-05, -7.891940940238005e-05, 1.5147307239992387e-05, -9.718963113984198e-05, 0.001386303603249339, 0.005386601293153687, -0.0007663907911713815, -0.001276764095615989, 0.03634502503908703, 0.04155174133372371, 0.01556313094565555, -0.010198354928596571, -0.017196990667590815, -0.010871427908691266, -0.0032012951948140844, -0.011608033285727942, -0.025346571953477268, 0.05486482538915764, 0.08246474032874394, 0.033510903274779895, -0.02478913009304003, -0.00025111401511399516, 0.009316222877968575, -7.81080822841168e-05, 1.1850135591599468e-05, -6.982074828066468e-05, -1.104115012081547e-06, 7.078149807024721e-05, -8.631419508789144e-06, -9.120613914545035e-06, -5.393126560379184e-05, 0.0006323917731377379, 0.01347197314662331, 0.02468884817388185, 0.016109212206707635, 0.049503749360238096, 0.07420601857651939, 0.13121820580564833, 0.12165843909751103, 0.05374120239657843, 0.024013767086124186, -0.001977324908691477, -0.04200101663678047, -0.07972313174439757, 0.006371011292660194, 0.07928021517228444, 0.07981509228530206, 0.10926555635279014, 0.08009441024931813, 0.07913294593828277, 0.09606351846852627, 0.0962820905201703, 0.05298684889543808, 0.016138034326074278, -0.00012252173006611656, 3.0511915091052148e-05, -3.922204961922792e-05, 3.528894531892703e-05, -2.5734188225001684e-06, 0.013759674948604705, 0.039958378786537324, 0.06234849691995953, 0.061260453248152914, 0.06888773087723409, 0.09694820702222248, 0.12276565141809255, 0.11013139070484658, 0.05390045130015415, -0.04992631439914049, -0.05012429420144247, -0.23004310080137594, -0.32303953082886083, -0.2031901021121325, -0.10354095479178081, 0.030600137228236145, 0.11820129469433889, 0.10694148944871656, 0.2022639186049178, 0.20680606295955245, 0.13583762672293379, 0.026831139866407283, 0.017173227000083315, 0.0063137727802982475, -0.0005972392819187855, -4.799452463972986e-05, -3.96681287323046e-05, -3.0610857321231266e-05, 0.039676831697038395, 0.061072020032216914, 0.07229466444355366, 0.021676428423152226, 0.023861248717012916, 0.07495068056456035, 0.024677806728837005, 0.003930481446267748, -0.021122252271479715, -0.08284570038073003, -0.20076037314083356, -0.2979654005576377, -0.40374753581810136, -0.2978157934446061, -0.16968673608847418, 0.07085769581898198, 0.08811625430949323, 0.10962635131400157, 0.1541732588996248, 0.1950410288300505, 0.08606077763556616, -0.044746041538510674, -0.04451980770004807, -0.0020314808053638377, -0.0003777565778609751, 7.703591244505167e-05, -2.64722751042097e-05, -1.0669865966987555e-05, 0.03692361517860267, 0.05268421298208297, 0.025070484695157363, 0.007115584285154306, -0.015298332305702503, -0.04069554480188328, -0.019820873835202178, -0.0597787392215349, -0.0912826637472985, -0.1118960146862513, -0.21893081432335257, -0.30226711768912284, -0.2985506914963656, -0.17424681843661008, -0.12605693310782798, -0.02631513498831369, 0.0016840757893324496, -0.025069284631740556, 0.006593333341520282, 0.032544391340532296, -0.019352100650315857, -0.14441324818336113, -0.09873380304828845, -0.0036283119471764765, -1.3072898426073194e-05, -3.0157662474397445e-05, -0.004165742495171632, -0.007145197247626718, 0.012951018437423484, 0.033814421423345606, -0.020256004633226354, -0.043910364349438215, -0.08440251392329062, -0.14097045776375974, -0.0812847621369723, -0.1784976771432674, -0.18064158783941492, -0.1473417466217683, -0.22768357324004143, -0.27181256010956467, -0.1612203303948655, 0.060416806433687374, -0.07753395717619524, -0.032315090339509404, -0.08188136982720239, -0.06746433611463368, -0.09306449538382791, -0.029077856207170114, -0.14488639913772075, -0.15071218914245024, -0.04461383565001658, -0.0010466370166501999, 8.985072896217563e-06, -1.0057710428991724e-05, -0.00043564444477569675, -0.04334851157936143, -0.029315560632111052, -0.033350177113930596, -0.04437365244693954, -0.08314300600266836, -0.14766286448072843, -0.16370719266366235, -0.14701495687537, -0.23349900147775304, -0.2283246353828953, -0.18286764079099632, -0.19757826973080392, -0.053880654918604456, 0.05653708428895218, 0.06485088584509816, -0.045097414123937515, -0.06332565686566563, -0.07529091003293313, -0.08036765553106273, -0.020692584931613838, 0.019755315563776348, -0.10390340615108688, -0.07634648422478818, -0.013186653594391596, -0.0007482689380405345, 2.2933104632134597e-05, -4.112902308779093e-05, 4.4338559513138676e-05, -0.030439358898858983, -0.0423083836429191, -0.04980246414597036, -0.0351182537656506, -0.13418191442599486, -0.14270575139956912, -0.18097028877393517, -0.08310267846667153, -0.18596902821427266, -0.1994735921604133, -0.20176465384220307, -0.08960790171711829, 0.10785134844004474, 0.12150505607892183, 0.07283446159056339, 0.010687081907106332, -0.053979966518080916, -0.0009443646351926476, -0.05833497267817549, 0.010917519971706747, -0.018181520950619597, -0.10029000431544817, -0.04994969955500611, -0.00042625416448926947, 8.730652563123702e-06, -6.29715074023822e-05, -1.5224253038425459e-05, 4.0337660271070895e-05, -0.0016346744277037921, -0.023181613757660362, 0.0023534792697202157, 0.015961505389867812, -0.10345816780898459, -0.11196984083740467, -0.09612690600811975, -0.0244905268820409, 0.04137964682169054, -0.005425117786689427, -0.07452429163015259, 0.08715116013681563, 0.22091113944957025, 0.1699147786043104, 0.08429499466668348, -0.05549706083458007, -0.14729608791255178, -0.08911336724179748, -0.13490398474020998, -0.04004789618592678, -0.11043492271860132, -0.1210410204950839, -0.05433297693989888, -0.011977948468510673, -4.0155952105746034e-05, 1.4553336214202061e-05, 4.482354954239569e-05, -0.00010804332225056636, -0.0002579083644535654, -0.0010036598623446868, 0.025773197074883417, 0.01931676144746389, -0.011554237793695764, -0.015099051476115066, -0.028513147198153944, 0.03220779575269371, 0.13797146668797258, 0.06040814208557944, -0.0027615934413666027, 0.09774904139399912, 0.141973369723405, 0.05311834761437203, -0.020288232311136484, 0.004293370655952589, -0.00533226589468581, -0.023341293495481915, 0.008414667883292442, 0.004893325677409196, -0.03253233404011754, -0.08812498415680627, -0.04341228556536616, -0.025085262410082104, 5.2796025446792474e-05, -4.1395035274482614e-05, 4.6641842745393716e-05, 2.3053278908478826e-05, -2.7006486381317256e-05, -0.0021802401898505797, 0.03395082718792412, 0.04766633855575579, 0.09535149623452845, 0.11642233950598684, 0.07485489819847395, -0.011814910446176184, -0.05136093494617301, -0.012881757575391306, -0.050064124253385994, 0.10795462909249198, 0.11934536655369532, -0.009861978258848101, -0.06640243972153076, 0.12957620673394796, -0.007857765123854648, 0.010339549173050749, 0.03327906168529602, 0.026728878826831132, -0.020408207289185996, -0.0755386281862322, -0.041625866422769685, -0.018058540910626492, 0.00024995680391879836, -2.1818045324034585e-05, -3.9380755294191315e-06, -7.008082056145356e-05, 2.7231974862044433e-05, 0.0010801847242273355, 0.0359292624005453, 0.015762872801075706, 0.09551745453102616, 0.2369616663940079, 0.25749391594478943, 0.11182457329485666, -0.015544067466280636, -0.027187242983756795, 0.16922957072965036, 0.3985398050147003, 0.2826836011191546, 0.029352231833050944, -0.0566351161997163, -0.009624766584009892, -0.005620425437490366, 0.12267557123829585, 0.04558134190104942, 0.007591564004740879, 0.011490323217298778, -0.038363810476218466, -0.0336877265916716, -0.00943656792712762, 0.002188179946747814, 4.489252542878122e-05, 2.08351423475915e-05, 3.49414948574442e-05, -0.002198288918750246, -0.0008541226852721689, 0.01897389851668743, 0.05234923385187192, 0.068594935933352, 0.26585092993125126, 0.21235087023872148, 0.05772175190752105, -0.09779251324166659, -0.024973201433403768, 0.07458382168502813, 0.19022610016941444, 0.1445999705018112, -0.005541925129698113, -0.034560834023745074, 0.01311009897477054, 0.03026670084164228, 0.07957180900929255, -0.03218784778351379, -0.027392221155170565, 0.0511586734959767, 0.02695789872320287, -0.002417258413124268, 0.00022225816749241336, 0.002158182348606376, -2.3547011571487296e-06, -3.7613386930943504e-05, 1.1860697385977327e-05, -0.000643296165271398, -0.0005030567424820373, 0.017711805451480683, 0.05817238912487365, 0.029848692028331337, 0.08373874341018946, 0.014510298544119771, -0.08982343091915906, -0.16967296242129368, -0.1733957689981937, 0.09893034350875198, 0.26277180648288695, 0.12615913690949418, 0.008228395561886636, -0.03502952165911662, -0.03309729096552815, 0.03135744795589739, -0.017723101425255086, -0.09611876613446174, -0.033255976170704665, 0.007540479464417324, 0.026968617824264674, 0.008941781508408318, 0.0025759885316809384, -5.006409356983497e-05, 9.0062918116142e-05, -1.9058097595117856e-05, 